%YAML:1.0
my_svm: !!opencv-ml-svm
   svm_type: C_SVC
   kernel: { type:LINEAR }
   C: 1.
   term_criteria: { epsilon:1.1920928955078125e-07, iterations:1000 }
   var_all: 20
   var_count: 20
   class_count: 19
   class_labels: !!opencv-matrix
      rows: 1
      cols: 19
      dt: i
      data: [ 0, 1, 2, 3, 4, 5, 6, 7, 8, 9, 10, 11, 12, 13, 14, 15, 16,
          17, 18 ]
   sv_total: 171
   support_vectors:
      - [ -9.61421609e-10, 5.20804200e-09, -9.48847934e-09,
          7.63609531e-09, -1.67199177e-09, 5.24448085e-09,
          -6.73342484e-08, -1.44296706e-07, -8.15590937e-08,
          -2.32687611e-08, 2.28565284e-07, -2.87848922e-09,
          7.36317247e-08, -1.05807267e-07, 1.76772531e-07,
          3.06510600e-07, -7.66590702e-08, -2.97249841e-07,
          -1.52166962e-07, 2.51363218e-07 ]
      - [ 4.24181301e-10, -1.47072425e-08, -1.61430605e-10,
          1.53343915e-08, -5.05918152e-09, -6.93888609e-08,
          -2.42179283e-07, -1.34326541e-07, -2.46903369e-07,
          -1.04642318e-07, 7.80480605e-08, 3.02779810e-08,
          3.94125017e-08, 4.30280345e-08, 1.18732707e-07, 1.62986531e-08,
          2.36053893e-07, -9.15739093e-08, -3.06856975e-07,
          3.46474103e-08 ]
      - [ -1.16133170e-09, -3.59753249e-09, -7.22970395e-09,
          -4.75473261e-09, -3.28815863e-10, -2.04211773e-07,
          -5.38716947e-08, -1.95291335e-07, -4.44911734e-08,
          -2.22018002e-07, 2.94347728e-07, 1.01791485e-07,
          2.98313665e-07, 1.84300518e-07, 3.62137513e-07, 5.90084746e-08,
          -1.81641212e-07, -1.77067633e-07, 9.26022921e-08,
          4.08488290e-07 ]
      - [ -3.96253874e-09, 2.56760657e-09, -2.30768737e-09,
          6.18762641e-09, 8.67255101e-10, -7.41417097e-08,
          7.85143612e-08, -1.61616441e-07, 9.11032032e-08,
          -4.99017787e-08, 1.05882279e-07, -9.75378143e-08,
          9.91735263e-08, -4.37282637e-08, 1.02865705e-07,
          3.57690340e-08, -1.25134491e-07, -3.18237987e-08,
          1.00921795e-07, 2.68624802e-08 ]
      - [ 8.00933453e-09, 7.94594524e-09, 9.21943943e-09, 5.53756763e-10,
          6.24776941e-09, -6.37380708e-08, -3.17274839e-07,
          -1.36557034e-07, -3.65104540e-07, -1.20900353e-07,
          2.91505927e-07, 1.71832923e-07, 3.96347588e-07, 4.19064889e-07,
          4.53717661e-07, 1.41486183e-07, -2.00440653e-07,
          -3.80299014e-07, -1.04155589e-07, 5.37323558e-07 ]
      - [ -7.84547705e-10, 2.86561885e-09, 1.09506659e-09,
          2.21766361e-09, 3.93489519e-10, -4.64815102e-08,
          -5.63116380e-08, 1.36085504e-07, -8.90576715e-08,
          -8.98012065e-09, -1.74945374e-08, 3.02352388e-09,
          3.06592476e-08, 1.00966613e-08, 8.12531624e-08, 1.05257058e-07,
          -1.43206407e-07, -2.31984686e-07, 1.09434275e-08,
          1.35742738e-07 ]
      - [ -1.36976086e-09, -1.27828803e-09, -6.01585448e-09,
          -2.21137486e-09, -1.41892675e-09, -8.41369570e-08,
          -3.65215271e-08, -2.32198630e-07, -4.58600873e-08,
          -1.17170799e-07, 9.16466050e-08, -6.89120583e-08,
          1.32132129e-07, -5.17746024e-08, 1.52588498e-07,
          1.19600372e-07, -7.01056138e-08, -3.72410325e-09,
          -1.40690730e-07, 1.13523107e-07 ]
      - [ -2.04081338e-08, -2.76349721e-09, -2.54599843e-08,
          -3.98106037e-09, -2.06646504e-08, -3.64023208e-07,
          -2.30110402e-07, 1.72221363e-07, -1.51406752e-07,
          -2.09162295e-07, 5.92241136e-08, -4.44724634e-07,
          -3.74921889e-08, 5.50258108e-07, 3.85045865e-07,
          8.00445434e-08, -1.93228999e-07, -3.11916750e-07,
          -6.51147332e-08, 5.92474692e-07 ]
      - [ 1.11599718e-09, -2.09915330e-09, -3.52447707e-08,
          -4.40227632e-09, -4.24018243e-09, -7.99326685e-08,
          -2.00463717e-08, -1.17893842e-06, -1.67109331e-08,
          -2.26260912e-08, 8.17472596e-08, -7.74651809e-08,
          1.78557443e-07, 2.24264497e-07, 1.74463821e-07,
          -8.78176465e-08, -3.21042364e-07, 3.36825643e-08,
          1.99242066e-07, 1.24657078e-07 ]
      - [ -2.83539747e-09, -1.67056502e-08, -3.38377184e-08,
          -1.02296411e-08, 1.53424362e-09, 1.80631005e-07,
          -6.64753728e-08, -3.76405154e-07, 8.00110982e-08,
          -1.01159856e-07, 1.78329529e-07, 5.74973313e-08,
          3.47009461e-07, 1.38302539e-07, 2.74523927e-07,
          -1.40717489e-07, 2.68541935e-08, -1.18502157e-07,
          -3.64702757e-08, 2.54354831e-07 ]
      - [ -5.57777424e-09, 1.44054302e-09, -6.52598420e-09,
          4.23321378e-09, -9.79081971e-09, -1.32895423e-07,
          -1.80225598e-07, -1.77562740e-07, -1.55944491e-07,
          -1.39853995e-07, 8.84015794e-09, 1.92295957e-07,
          -5.29750217e-08, -3.33539880e-08, 9.33159683e-08,
          3.25283168e-07, -6.62968276e-08, -2.46383053e-07,
          -1.27014204e-07, 6.50859544e-09 ]
      - [ -3.58585472e-09, -4.26078817e-09, -1.31521044e-11,
          -1.77316950e-09, -1.68358172e-09, -9.68493268e-08,
          -1.69159023e-07, 5.99087571e-08, -1.46848265e-07,
          -9.81699415e-08, 2.70364211e-07, 6.66987399e-09,
          2.46131293e-07, 6.67201164e-07, 4.14628090e-07, 3.66891555e-07,
          -1.45044183e-07, -3.72869465e-07, 5.47792673e-08,
          2.11452885e-07 ]
      - [ 1.14944720e-09, 4.67723105e-09, 2.02694461e-09, 3.33660077e-09,
          4.54482729e-10, 6.14149869e-08, 6.20251086e-08, 1.20688810e-07,
          7.22963094e-08, 4.28703153e-08, 4.33294332e-07, 5.60557510e-07,
          3.86828418e-07, 5.67597795e-07, 4.86621389e-07, 5.41984207e-07,
          -3.10987645e-07, -9.84187523e-07, -1.67867938e-07,
          7.10641928e-07 ]
      - [ -6.99362213e-09, 1.44656447e-08, -1.23950961e-09,
          1.49766635e-08, -6.48244036e-09, -5.31155820e-07,
          -3.73217617e-08, -4.09712101e-07, -3.42143132e-08,
          -5.37156552e-07, 4.97532312e-07, 1.24805084e-07,
          4.39156850e-07, -4.73086857e-07, 4.18010984e-07,
          4.69251233e-07, -2.82753433e-07, -4.98505813e-07,
          -4.08238293e-07, 4.76125336e-07 ]
      - [ -1.45105750e-08, -8.28318036e-09, -1.69040177e-08,
          -9.74332792e-09, -4.65118521e-09, -9.27040276e-08,
          -4.67301753e-08, 1.24227411e-08, -6.84349502e-08,
          -4.29052243e-08, -5.97194756e-08, -3.74108104e-08,
          -6.33154471e-08, 1.36106678e-07, 4.35031708e-08,
          8.78554971e-08, -8.95524224e-08, -1.30568637e-07,
          3.51281422e-08, 9.22570962e-08 ]
      - [ -7.42804707e-09, -1.69386805e-09, -2.28162644e-08,
          -1.52371467e-08, 1.56744479e-10, -3.16823645e-07,
          -3.06298801e-07, -4.24979902e-07, -3.57872750e-07,
          -4.20176008e-07, 2.27928396e-07, -1.84560577e-07,
          1.64004049e-07, -3.12331224e-07, 2.88806660e-07,
          1.54855030e-07, -4.49256525e-08, 4.87309002e-08,
          -4.52472051e-07, 6.07519212e-07 ]
      - [ -2.06145456e-09, 8.84434970e-10, -1.66149505e-09,
          -2.23010188e-09, -1.47401735e-09, -1.08461776e-07,
          -3.38813813e-08, -5.74895012e-08, -7.50102380e-09,
          -1.59152506e-07, 5.14522540e-08, 4.24409352e-09,
          7.92978554e-08, -1.13738650e-07, 1.63293976e-07,
          -3.67211506e-08, -2.35355344e-08, -2.75669493e-07,
          2.54828990e-07, -1.16117438e-09 ]
      - [ -1.65707204e-09, 8.47909187e-10, -2.00205164e-09,
          -3.31456640e-10, -1.29271593e-09, -4.76538204e-08,
          4.83991602e-09, -2.57477751e-07, 1.07587150e-09,
          -4.42107790e-08, 1.99034389e-07, 1.74953485e-07,
          1.94429035e-07, -1.11877569e-07, 2.23940859e-07,
          -9.47791676e-08, -2.72586107e-07, -9.81568888e-08,
          1.60173755e-07, 3.34383373e-07 ]
      - [ -5.35140654e-10, -1.33568756e-09, 3.15207571e-09,
          7.64719454e-10, -6.94320851e-11, -4.96203825e-08,
          -8.16460641e-08, -9.53662180e-08, -7.81815430e-08,
          -4.24914752e-08, -3.90721766e-08, 2.94001765e-08,
          1.20385462e-08, 1.60045470e-08, 1.48060684e-08,
          -1.53977993e-07, 9.67487210e-08, 6.95351048e-08,
          -4.57606859e-08, 2.58749377e-08 ]
      - [ 1.96141270e-10, -1.01034925e-09, 9.54807455e-10,
          -1.03036590e-09, 2.31062419e-10, -1.20441456e-07,
          -2.05091553e-08, -1.44114694e-08, -2.00953565e-08,
          -1.15449232e-07, -2.62942326e-08, -5.34795568e-08,
          -1.82643909e-08, -1.78658155e-08, -1.83761877e-08,
          -2.13978012e-07, -4.54921008e-08, 2.01592940e-07,
          7.22518436e-08, -7.69790134e-08 ]
      - [ 2.62642108e-09, -8.15092327e-10, 7.12333925e-09,
          6.69877620e-09, 1.53595126e-09, 9.60533200e-08, 3.96608613e-08,
          -2.83567175e-07, 5.89060534e-08, 8.22846573e-08,
          1.39561024e-07, 2.04406714e-08, 1.73087145e-07, 2.71689515e-07,
          1.45769917e-07, -8.74071233e-08, 2.24778645e-07,
          3.53318192e-08, 3.59600506e-07, -4.67048494e-07 ]
      - [ -9.95289073e-10, -1.61316094e-09, 3.48520679e-09,
          -2.61962052e-09, 7.89888654e-10, 3.46852360e-08,
          -7.53236620e-08, -2.50071054e-07, -9.19829546e-08,
          -2.46518912e-08, -2.39214764e-08, 6.12285618e-08,
          -7.30388594e-09, -5.33141424e-08, -5.91059894e-08,
          -2.32391741e-07, 2.88588375e-09, -1.63866147e-07,
          -4.95127779e-08, 2.97746539e-07 ]
      - [ -4.31514997e-11, -5.84749138e-10, 1.38594280e-09,
          -2.76022677e-10, -7.92258481e-10, -1.06940199e-07,
          -3.28388445e-08, -1.49411399e-08, -3.59250159e-08,
          -1.02445078e-07, 1.67826464e-08, -3.72915743e-08,
          1.00007460e-08, 2.53064947e-08, 1.43351988e-08,
          -2.17984123e-07, -1.19698981e-07, 6.26244159e-08,
          1.83682062e-07, 6.80372381e-08 ]
      - [ -1.05806519e-09, -1.68391978e-09, -2.23073249e-09,
          -1.41577738e-09, -9.99265670e-10, -7.45824380e-08,
          -3.52248435e-08, -2.72054734e-07, -3.48790152e-08,
          -7.42000168e-08, -5.13282750e-08, 1.29534826e-07,
          -3.85340400e-08, 1.79949904e-08, -3.19075184e-08,
          -7.51211431e-08, -1.79006548e-07, -3.00437968e-08,
          6.11176404e-07, -4.51550534e-07 ]
      - [ -6.78783785e-09, 1.82562954e-09, -8.01872879e-09,
          9.57356416e-10, -1.81253457e-10, -1.30306873e-07,
          -2.83268491e-07, 2.17833467e-08, -2.59013575e-07,
          -1.59929812e-07, -1.41960911e-07, -1.37030142e-07,
          -1.67764810e-07, -7.86309968e-08, -9.96416816e-08,
          -3.22018792e-07, -1.66368793e-07, 2.25327142e-07,
          1.37954700e-07, 9.13960321e-08 ]
      - [ -2.39297138e-09, -3.51697960e-09, 2.62566147e-09,
          5.28490540e-09, -3.25921157e-09, -2.51203090e-07,
          -1.67666542e-07, -1.47929518e-08, -1.75660702e-07,
          -2.57604995e-07, -7.47940874e-08, 2.23291199e-08,
          -4.58466154e-08, 2.39909241e-07, -3.69235771e-08,
          1.59048668e-08, -2.97967198e-08, -1.73388273e-07,
          8.78775452e-08, 1.09279654e-07 ]
      - [ -4.08443235e-09, -5.39233769e-10, -1.03937543e-08,
          7.74120057e-09, -3.67824082e-09, -2.12595623e-07,
          -7.93099417e-08, -7.56637064e-08, -6.96342042e-08,
          -2.14594451e-07, 1.00348130e-08, -1.30171799e-07,
          1.31714275e-08, -8.82267059e-09, 4.62948235e-10,
          -2.80609015e-07, -9.56084065e-08, 5.01870900e-08,
          7.27731262e-08, 1.75201620e-07 ]
      - [ -7.44001041e-11, -3.21460220e-10, 3.54861385e-09,
          7.96040012e-10, 8.38296446e-11, -2.12974314e-08,
          -3.68866893e-08, 1.68989402e-07, -3.02231484e-08,
          -3.20446922e-08, -1.23847315e-08, -2.89199829e-08,
          2.54904986e-09, 1.10426143e-07, -1.54120861e-09,
          -5.26200701e-08, -1.27044672e-07, 1.03791578e-07,
          1.15224609e-07, -5.14161247e-09 ]
      - [ 8.38409231e-10, 3.38431239e-09, 6.62887190e-10, 2.12052198e-09,
          3.32730926e-10, 1.64004170e-08, 3.66414312e-08, 7.95253996e-08,
          3.86099011e-08, 2.70562097e-08, 5.16345260e-08,
          -3.38656321e-08, 4.07432914e-08, 1.48010841e-07,
          2.30717010e-08, -1.43728130e-07, -3.63390651e-09,
          2.71532230e-07, 7.48285416e-08, -2.46548836e-07 ]
      - [ 9.75403203e-10, 7.89077359e-10, 3.35683079e-11, 4.76039208e-10,
          8.36318570e-10, -6.69330102e-09, 9.18479603e-09,
          -1.02477308e-07, 1.14050254e-08, -1.40135610e-08,
          4.05422469e-08, 8.00299773e-08, 4.44898447e-08,
          -6.00032948e-08, 3.73419660e-08, -1.19797889e-07,
          -7.15898167e-08, -4.96879515e-08, 1.30642306e-07,
          1.62976903e-07 ]
      - [ -1.26731836e-09, -2.42729259e-09, 9.31741528e-09,
          9.92784788e-09, -1.65700997e-09, -2.94404089e-07,
          -1.15422189e-07, 3.18037053e-07, -1.18473977e-07,
          -3.30785269e-07, -1.64718212e-08, -7.62197843e-08,
          -8.59991278e-09, 4.12954478e-07, -1.54457549e-08,
          1.30948038e-07, 1.20457031e-07, -3.12437180e-07,
          -1.88448709e-07, 1.36908142e-07 ]
      - [ -1.41720058e-09, -1.98860106e-09, 5.46598634e-11,
          -4.99295494e-10, -9.38797928e-10, -1.69656378e-08,
          -2.59494009e-08, -5.52223440e-08, -2.24828778e-08,
          -1.88395433e-08, -3.15132915e-08, -8.23537434e-08,
          -1.99029504e-08, -7.43950812e-09, -2.70471876e-08,
          -8.74110118e-09, -2.10646203e-08, 6.62391315e-08,
          7.79493945e-08, -7.99987632e-08 ]
      - [ -1.75013692e-09, -2.42302134e-09, 8.04113665e-09,
          4.69611994e-09, -1.29812017e-09, -1.93389880e-07,
          -2.03449375e-07, 2.22248232e-07, -2.31902447e-07,
          -1.90195877e-07, -1.38733142e-07, -1.19490053e-07,
          -1.24239406e-07, 1.80256023e-07, -4.52143496e-08,
          8.02040958e-08, -1.42869681e-07, -8.94811336e-08,
          1.75823558e-07, 1.13586573e-07 ]
      - [ -5.83795345e-10, -1.82984516e-09, 2.97342012e-10,
          -3.49762996e-10, -1.35035727e-09, -1.12071959e-07,
          -9.74482495e-10, -2.00033092e-08, 2.97802205e-09,
          -1.20714262e-07, 2.36151241e-08, -3.36456516e-08,
          3.47461686e-08, 8.62869882e-08, 2.14215170e-08,
          -7.04085892e-08, -7.92451615e-08, 2.33068622e-08,
          1.42852613e-07, 2.43566927e-08 ]
      - [ 4.95557595e-10, -1.03041908e-09, 2.66751776e-09,
          3.58372931e-09, 5.23712407e-10, -1.48125681e-08,
          8.68316707e-09, 2.95244060e-08, 6.23372909e-09,
          -2.25473755e-08, 3.20196172e-08, 1.03929253e-07,
          3.76020211e-08, -2.70439511e-08, 1.78313027e-08,
          -2.72053768e-07, -1.10708093e-07, 8.85537972e-08,
          1.95254330e-07, 1.07858051e-08 ]
      - [ 1.74618886e-09, -1.26360133e-09, -2.64124250e-10,
          -9.05105546e-10, 1.05167852e-09, -1.00341637e-07,
          1.77131354e-09, -1.13259366e-08, -1.61976121e-09,
          -9.00375099e-08, -5.15910763e-08, 1.58539191e-08,
          -5.17444079e-08, 4.44483312e-08, -3.49742706e-08,
          5.72378767e-08, -9.21823613e-08, -3.18036175e-09,
          5.64916363e-08, -9.74212888e-09 ]
      - [ 7.43635487e-10, 6.80198564e-10, 7.49334594e-10, 7.43074380e-10,
          3.03649716e-10, 3.16631592e-08, -1.52973758e-08,
          -4.28045240e-07, -1.07220028e-08, 3.07566239e-08,
          1.37102321e-08, 1.23692061e-07, 8.23864799e-09,
          -6.36164401e-08, 1.81115887e-08, -1.85154619e-07,
          -3.14630881e-07, 3.81773440e-08, 2.67691831e-07,
          1.22159790e-07 ]
      - [ 3.40690476e-09, -2.49672416e-09, 6.88312429e-09,
          -4.81966556e-09, 2.07654871e-09, -2.14971664e-07,
          -5.08170679e-08, -7.30564480e-08, -1.07283988e-07,
          -9.40117815e-08, -1.31698329e-07, -1.95033323e-08,
          -7.95360151e-08, 3.54286044e-07, 2.63154476e-08,
          -1.52961647e-07, -3.21508622e-07, -1.30010363e-07,
          9.41968850e-08, 2.89722038e-07 ]
      - [ -2.99480302e-10, -6.79416878e-09, -6.56932686e-09,
          -8.53367421e-09, -1.68216430e-09, -2.56370384e-07,
          9.05274149e-08, 1.01119944e-07, 7.64682113e-08,
          -2.27163227e-07, 6.81623575e-08, -2.01546548e-08,
          2.94246014e-08, 2.35905915e-07, 8.46475723e-10, 1.59258619e-07,
          -4.75371031e-08, -4.18766462e-07, -1.34096226e-07,
          4.59185998e-07 ]
      - [ -6.56231292e-10, -1.28873057e-09, -3.84809962e-10,
          1.92491821e-11, -3.90438626e-10, -4.07253289e-08,
          5.23603028e-09, -4.88679097e-09, 4.27566693e-09,
          -4.47455726e-08, 1.67576921e-08, -4.01013942e-08,
          1.72942833e-08, 2.00901873e-08, 1.68487375e-08, 2.38943390e-08,
          -1.64541998e-08, 1.03266977e-08, -2.45268765e-08,
          8.46003800e-09 ]
      - [ -1.40101342e-09, -2.46240872e-09, -4.14580814e-09,
          -6.28147490e-09, -3.91038625e-11, -5.96880270e-08,
          -1.60913899e-07, -3.62348089e-08, -1.19325335e-07,
          -1.36921798e-07, -2.12005318e-07, 1.13097940e-08,
          -2.33464135e-07, 1.15322877e-07, -6.42523332e-08,
          -9.26809207e-08, -8.05328781e-08, 3.35908865e-08,
          3.25379830e-08, 1.40473645e-07 ]
      - [ 3.48355955e-10, -2.83365753e-09, -1.41504863e-10,
          -1.78678461e-09, -4.68020400e-10, -8.42522496e-08,
          9.61451718e-09, -4.62847858e-08, 1.00222390e-08,
          -9.13995422e-08, -8.56472404e-09, -2.64421676e-08,
          5.18649257e-09, 2.73818230e-08, 3.83881682e-09,
          -3.00128917e-08, -6.58673400e-08, 9.46132346e-08,
          7.63306076e-08, -1.24218374e-07 ]
      - [ 1.08408149e-09, -4.45375958e-09, -1.28160127e-09,
          -4.52378190e-10, -2.68783773e-09, -5.42716627e-08,
          6.57673525e-08, -4.94412511e-08, 7.59196439e-08,
          -3.51980098e-08, 8.84468250e-08, 1.18442856e-07,
          1.04239909e-07, 1.77245141e-07, 8.49575272e-08,
          -2.86633650e-07, -1.97007680e-07, 1.94274165e-07,
          1.65462296e-07, 1.34291895e-07 ]
      - [ 6.72895628e-10, -1.03188913e-09, 1.14999710e-09,
          -4.82488982e-09, -2.52911603e-09, -1.20803364e-07,
          -1.73781984e-07, 5.04733677e-08, -1.11024001e-07,
          -1.86824821e-07, -1.05557923e-07, 1.02444133e-07,
          -4.53817499e-08, 1.30802761e-07, -1.54834723e-08,
          7.91847565e-09, -1.56732426e-07, 6.52171295e-08,
          1.36740383e-07, -3.18434381e-08 ]
      - [ 1.63060287e-09, -1.59068381e-09, 1.24139843e-09,
          1.74233836e-10, 1.39118261e-09, -1.50407402e-08,
          4.95879036e-08, 1.41932460e-07, 5.57338460e-08,
          -1.99480965e-08, 1.00767387e-07, -1.25423639e-07,
          9.85215109e-08, 2.60344422e-07, 8.74435528e-08,
          -4.37982663e-08, -6.90954920e-08, 5.49630741e-08,
          8.05981983e-08, -8.31465208e-09 ]
      - [ 5.47497780e-09, 2.81501311e-09, 3.13227000e-09, 2.89436719e-09,
          3.11627546e-09, 4.64555256e-08, 1.92968670e-07, 1.94763132e-07,
          1.91973299e-07, 4.84960943e-08, 3.01261281e-07, 2.57518366e-07,
          2.71007849e-07, 3.80442572e-07, 2.32269002e-07, 5.17067463e-07,
          -4.12473810e-07, -6.45749424e-07, 8.99388368e-08,
          3.12993791e-07 ]
      - [ 1.07168292e-08, 4.53198812e-09, 1.06615827e-08, 1.00004982e-08,
          2.66937983e-09, 1.05682618e-08, 5.40162581e-08, 3.43060577e-07,
          8.24049877e-08, 1.27070230e-08, 2.30582017e-07, 3.53088126e-07,
          2.62944468e-07, 4.15631092e-07, 1.10972920e-07,
          -3.43627079e-07, 4.38101864e-07, 1.93236840e-08,
          2.34430217e-07, -1.54770433e-07 ]
      - [ 1.55729193e-10, -2.09027395e-09, -1.07006082e-09,
          -1.79080206e-09, -9.27816046e-10, -7.42514530e-08,
          -4.61089762e-08, -2.37943532e-08, -4.21043183e-08,
          -8.14572658e-08, -1.81522797e-08, -3.87976407e-08,
          -4.38595427e-09, -1.07201279e-08, -8.11987544e-09,
          -2.87745688e-10, -5.20758476e-08, 3.52648186e-08,
          3.18619868e-08, -3.79405698e-08 ]
      - [ -1.13244054e-08, -1.91376337e-08, -2.67254374e-09,
          -1.42619143e-08, -1.49784651e-09, -2.48080340e-07,
          -1.80385385e-07, -3.64957771e-08, -1.56851911e-07,
          -2.80500160e-07, -7.07442780e-08, 2.43523431e-07,
          -8.99232120e-08, 1.71574257e-08, -9.05433168e-08,
          -2.51554553e-07, 7.89568144e-09, 2.15437723e-07,
          3.28508740e-08, 1.93027123e-08 ]
      - [ 1.11401188e-09, -1.51793222e-09, -1.70922965e-09,
          -1.73623171e-09, 2.20918908e-10, -1.01164225e-07,
          4.73004000e-08, 4.68290757e-08, 5.36620028e-08,
          -1.18637885e-07, 5.71839536e-08, 9.24149006e-08,
          6.16891356e-08, 4.22535607e-09, 8.17034334e-08,
          -9.28288912e-08, -2.93423341e-07, 2.61422066e-08,
          3.55219157e-07, 3.14710888e-08 ]
      - [ 4.43417258e-09, 5.71784231e-10, 5.33831701e-10,
          -6.93935354e-09, 2.55906252e-09, -1.59450664e-07,
          6.80139749e-08, -1.12993298e-07, 7.84013849e-08,
          -1.41529327e-07, 1.90669937e-07, 2.31411150e-07,
          1.68630450e-07, 1.52762382e-07, 1.35658894e-07, 6.90037680e-08,
          -1.79154924e-07, -8.37259719e-08, 1.96609378e-07,
          2.41137510e-08 ]
      - [ -5.29810584e-10, 7.04256520e-09, 6.51089049e-09,
          1.12380611e-08, 1.09671627e-09, 2.92117221e-07, 1.24920632e-07,
          -7.18863475e-08, 1.22640969e-07, 2.70883135e-07,
          2.42786058e-07, 1.49616682e-07, 2.28523007e-07, 1.92974198e-07,
          1.54356215e-07, -5.15853635e-08, 8.99881147e-09,
          5.90231153e-08, 5.44521761e-08, -7.64928529e-08 ]
      - [ 5.77827519e-09, 2.77541456e-08, 2.03864037e-09,
          -1.18722374e-08, 1.83581672e-09, 3.96700273e-07,
          9.08874664e-09, -2.64104472e-07, 3.04171177e-09,
          3.24729086e-07, -1.95416987e-07, 1.50660782e-07,
          -2.97781639e-08, -1.56744093e-07, -5.40096134e-10,
          -3.86292314e-08, 1.36300727e-07, -1.54673330e-07,
          -2.49354201e-07, 1.49832061e-07 ]
      - [ -1.45091317e-09, 5.46671930e-10, -2.59180954e-10,
          -2.68305844e-09, -1.66613279e-09, 8.85081803e-08,
          1.43478545e-08, 9.28421287e-08, -3.94984045e-09,
          1.10721921e-07, 2.07990092e-09, 1.02349720e-08,
          -5.68644065e-09, -1.81827851e-08, 1.16087850e-08,
          9.86318582e-09, -1.38730387e-08, -1.48270743e-07,
          1.83092908e-09, 2.13608530e-07 ]
      - [ -3.49493545e-10, -5.43608436e-10, -5.48685153e-10,
          -5.09905396e-10, -4.09944856e-10, 1.27895579e-08,
          -1.00702104e-08, -2.31411388e-08, -1.28473134e-08,
          1.44488741e-08, -6.26168850e-09, -8.08827849e-09,
          -3.95936972e-09, -1.32494007e-08, -2.41789500e-09,
          -4.36003056e-08, 4.39343104e-08, -1.05485987e-09,
          -2.37301148e-08, 3.34610206e-08 ]
      - [ -4.93793806e-09, 3.79612519e-09, -5.82916027e-09,
          1.50421475e-09, -1.79761472e-09, 7.00281646e-08,
          -8.38665954e-08, -8.54234159e-08, -9.07988920e-08,
          6.81379220e-08, -8.70672849e-08, 1.01808393e-08,
          -1.12642617e-07, -9.04206985e-08, -3.68426250e-08,
          7.80027065e-08, 1.47246453e-07, -1.00806453e-07,
          -2.82650518e-07, 4.82428675e-08 ]
      - [ -2.09586881e-09, -2.43896192e-09, -1.68868430e-09,
          -3.21233218e-09, -1.38740275e-09, 4.33134915e-08,
          7.32043093e-10, -3.35324017e-08, 6.48471110e-10,
          2.72866316e-08, 6.78645691e-08, 2.11981401e-08, 7.14149593e-08,
          2.37160069e-08, 5.02927726e-08, -6.54652439e-08,
          3.72109099e-08, 8.60705007e-10, 4.18551487e-08, 3.32661863e-08 ]
      - [ -1.18325927e-09, 2.91509282e-11, -3.92287847e-09,
          -1.06081310e-09, -1.01458442e-09, 1.22953836e-07,
          -1.29558142e-08, -4.99569346e-08, -5.52393731e-09,
          1.12806369e-07, 2.48742626e-08, 9.66015108e-08, 7.98513344e-09,
          -4.60344332e-08, 6.14315709e-09, -1.00986306e-07,
          -6.78120173e-08, -1.75868806e-07, -1.44025805e-08,
          4.41391393e-07 ]
      - [ 8.52073551e-11, 6.23848395e-09, 9.17672383e-10, 7.05214331e-10,
          8.56810678e-10, 1.02290969e-07, -1.65989367e-09,
          -1.49037716e-09, -2.95293283e-08, 1.28697195e-07,
          -2.76339822e-08, 5.42342065e-08, 4.82733853e-09,
          1.62142353e-08, 3.67195661e-08, 1.40697452e-07,
          -2.30509229e-07, -7.99040620e-08, 1.61015464e-07,
          -5.54261026e-10 ]
      - [ 7.56467167e-10, 5.53249180e-09, 9.91936089e-10, 2.41233611e-09,
          1.00026398e-09, 1.79943996e-07, 6.70332199e-08, 9.02491024e-08,
          5.72336205e-08, 1.67766871e-07, 2.63876494e-08, 1.28749477e-07,
          2.30764794e-08, 1.57656757e-07, 4.27558859e-08, 4.80096567e-08,
          2.87577642e-08, 3.62668366e-08, 3.04499448e-09,
          -1.51126116e-07 ]
      - [ 1.99057909e-10, 1.52173452e-09, 1.59663782e-10,
          -2.89953284e-09, 1.25955205e-10, 2.09747142e-07,
          4.68486085e-08, 1.23246707e-07, 4.57414799e-08, 2.13125972e-07,
          1.13346339e-07, 2.48802451e-07, 9.53971480e-08,
          -2.25574297e-07, 8.48416875e-08, 1.92685661e-07,
          -7.32299554e-08, -3.50036231e-07, 1.18162102e-08,
          2.83373083e-07 ]
      - [ 8.77592499e-10, 4.08033252e-09, 1.00369144e-08, 1.27128308e-08,
          -4.00451183e-09, 1.26748759e-07, -7.73078170e-08,
          -2.71560680e-07, -3.56577559e-08, 7.09249051e-08,
          2.83741372e-07, 1.77309346e-07, 2.49028574e-07, 3.11375747e-09,
          2.07492334e-07, 1.05496788e-07, -2.47399399e-08,
          -2.45387838e-07, 4.23813695e-08, 1.76349758e-07 ]
      - [ -1.68724068e-09, -1.29342148e-09, -1.16838239e-09,
          -6.20214935e-10, -2.03313166e-09, 1.38810718e-09,
          -9.65104263e-08, 8.68115890e-08, -9.94643514e-08,
          -5.68845748e-10, -5.67314729e-08, -4.45552617e-09,
          -4.82415885e-08, 6.63391120e-08, -4.38918519e-08,
          1.19812867e-07, 7.02105609e-08, -3.41171571e-08,
          -3.68549848e-08, -1.31695103e-07 ]
      - [ -4.62648098e-09, 1.55460036e-08, 3.17896709e-09,
          -2.72257239e-09, -4.19091123e-10, 1.99712545e-07,
          -1.65684511e-07, 1.39983015e-07, -2.31207309e-07,
          7.53011093e-08, -2.57589022e-07, -1.19361047e-07,
          -2.29108466e-07, -2.19910888e-07, -1.22398049e-07,
          1.37519805e-07, -7.09621375e-08, -1.07102807e-07,
          9.87810456e-09, 9.78824914e-08 ]
      - [ -5.27385524e-10, 8.24087076e-10, -3.50685064e-10,
          6.07121964e-10, -1.18111187e-09, 3.59471066e-08,
          -5.91263793e-09, 3.54214755e-08, -7.85202658e-09,
          3.56327554e-08, 1.07575872e-07, 1.67812981e-08, 9.91266944e-08,
          1.07514914e-07, 7.08752523e-08, -3.42529205e-08,
          -7.23652960e-08, 1.35650202e-08, 1.37235531e-07,
          8.17451173e-09 ]
      - [ -2.79024026e-10, -8.05201961e-10, 7.32662195e-11,
          6.95150659e-10, 1.36836459e-10, 9.70540910e-08, 2.53976107e-09,
          5.70660763e-09, -1.12663141e-08, 1.34105520e-07,
          7.54091687e-08, 1.87386206e-07, 5.67322473e-08,
          -1.16834741e-07, 3.88122601e-08, -1.73911303e-07,
          8.81722997e-08, -5.40395853e-08, 1.41001792e-07,
          3.25453406e-08 ]
      - [ 1.20344268e-08, 2.11746110e-09, 3.53205709e-09,
          -1.26022721e-08, 1.05915754e-09, 2.32858866e-07,
          -1.82419342e-07, 2.49992269e-07, -2.39941585e-07,
          2.47424566e-07, -3.04351374e-07, 5.05335223e-08,
          -3.14012993e-07, 2.26021129e-07, -1.65642035e-07,
          -2.80328919e-07, -4.12491772e-07, 2.00555604e-07,
          -1.83860408e-07, 6.64462277e-07 ]
      - [ -9.42268659e-12, -2.39492509e-10, 4.27119118e-10,
          -4.54513233e-10, -3.02277953e-10, -2.00129868e-08,
          1.25470994e-08, 3.23746860e-08, 7.14639192e-09,
          -1.46083634e-08, -1.50630548e-08, -8.42933279e-09,
          -1.93059595e-08, 1.44544732e-09, -2.64184652e-09,
          1.30446821e-07, 2.98363972e-07, 2.11771756e-08,
          -3.35616903e-07, -1.30201684e-07 ]
      - [ -3.07480624e-10, -3.54612201e-10, 7.93545618e-10,
          9.97434357e-11, -2.38813223e-11, -2.14629718e-08,
          2.39967779e-09, -1.69507941e-09, -1.11472144e-10,
          -2.07565538e-08, -1.52131943e-08, -4.07501659e-08,
          -7.45675433e-09, -4.94834538e-08, 3.42250139e-09,
          -4.96378014e-08, 9.23564656e-08, 3.41916917e-09,
          -6.45012506e-08, -9.44258982e-09 ]
      - [ 2.09154805e-09, -1.31291609e-08, -5.16460119e-09,
          -1.95463663e-08, -2.92447999e-09, -1.75587711e-09,
          -1.70488789e-07, 8.69320559e-07, -1.50460110e-07,
          -2.21244321e-08, -2.14542140e-07, -1.73024574e-07,
          -2.37058813e-07, -2.31367778e-08, -1.88706650e-07,
          -2.17715169e-07, -1.72430205e-07, 1.78053625e-07,
          9.35887741e-08, 1.12404166e-07 ]
      - [ -1.41446288e-09, -4.94580044e-10, -7.87641863e-09,
          1.89304639e-09, -4.43004300e-09, -1.28631854e-07,
          -2.89839619e-08, -4.74031765e-08, -4.74175259e-08,
          -1.03081859e-07, -6.76355114e-08, 1.84144824e-07,
          -6.46878107e-08, 1.17071018e-07, -5.62178641e-08,
          1.45711070e-07, 4.48219481e-07, -6.64120492e-08,
          -4.57131222e-07, -9.41354941e-08 ]
      - [ -1.22015438e-08, -1.27541355e-08, -2.13229008e-08,
          -9.77708492e-09, -9.55596136e-09, -1.98220278e-07,
          -2.30360712e-07, 1.04249516e-07, -2.02629096e-07,
          -2.94693024e-07, -1.23918056e-07, 3.93038704e-08,
          -2.03433444e-07, 1.64484319e-07, -1.85102195e-07,
          -3.15375708e-08, -6.64487345e-08, 3.13753183e-08,
          1.69351217e-08, 7.24783078e-08 ]
      - [ -7.44181994e-10, -4.34757741e-09, 3.21880994e-10,
          -1.83437194e-08, 3.42966933e-10, -2.86781358e-07,
          -2.27035187e-07, 1.10653389e-07, -1.97563992e-07,
          -3.28942008e-07, -3.06019331e-07, -2.34124556e-07,
          -1.91709546e-07, -3.56246801e-07, -1.71656637e-07,
          -8.51040127e-08, -2.88286444e-08, -3.56124978e-08,
          7.23267135e-08, 1.57848952e-08 ]
      - [ 8.20641832e-10, -2.59954813e-09, 4.41340964e-09,
          3.64354014e-09, 4.09181078e-10, 5.63378943e-09,
          -4.29914486e-08, 4.68076479e-07, -2.85200787e-08,
          -1.80363919e-08, -5.20013934e-08, 1.91149525e-07,
          -5.75845753e-08, 3.06975693e-07, -2.23605632e-08,
          -3.63861034e-07, -2.73100710e-07, 7.64120273e-07,
          -5.54556721e-07, 4.25142986e-07 ]
      - [ 9.01719865e-10, 4.55627758e-10, 1.51380283e-10,
          -4.16452561e-09, 7.16414761e-10, -3.05674419e-08,
          -4.04717717e-08, 7.26244878e-08, -4.31867981e-08,
          -2.32131132e-08, 1.60262363e-08, 1.56043356e-07,
          7.11292847e-09, -2.19861619e-07, 6.88866519e-09,
          1.10808614e-07, 2.20708969e-07, -5.56656836e-08,
          -2.70764048e-07, 1.82762570e-08 ]
      - [ -1.60580349e-09, -1.58412994e-09, 2.04014650e-09,
          -3.21611515e-09, -1.09259224e-09, -8.34571949e-08,
          -4.80059299e-08, 2.17797478e-08, -3.60454528e-08,
          -1.03920556e-07, -1.27202782e-08, -5.93448526e-08,
          -7.51164408e-10, -1.15365623e-07, 1.11524869e-11,
          1.22455134e-07, -5.20124814e-08, -7.83964111e-08,
          -6.13423055e-08, 9.57957127e-08 ]
      - [ -3.94792554e-09, -3.35680239e-09, -2.58198196e-09,
          -1.90866345e-09, -1.77125059e-09, -5.24987200e-08,
          -1.98113010e-08, 1.11989834e-07, -3.03141512e-08,
          -4.29911289e-08, -6.16814617e-08, 3.71804099e-08,
          -6.49318679e-08, 8.08277107e-08, -4.50672637e-08,
          -2.64104294e-08, 6.64312338e-08, 4.65153356e-08,
          -1.05059563e-07, -7.58351781e-09 ]
      - [ -7.24095095e-09, 2.60247435e-10, 7.07082215e-09,
          -7.03419456e-09, -6.39121867e-09, -2.87750709e-07,
          -1.90600957e-07, 3.05438107e-07, -2.23683131e-07,
          -3.72083548e-07, -4.17968948e-07, -1.28682757e-07,
          -4.71192237e-07, -5.00385340e-07, -2.91371293e-07,
          1.37633918e-07, -8.60211458e-08, -9.20000005e-08,
          -1.70141973e-07, 3.91989573e-07 ]
      - [ -7.31256389e-10, -5.44202128e-10, -1.23070998e-10,
          -1.09853804e-09, -5.48817325e-10, -1.05467215e-07,
          -4.11087733e-08, -2.84241803e-08, -4.51423396e-08,
          -1.05080936e-07, -2.96322611e-08, -8.67815331e-08,
          -1.86296916e-08, -8.15449255e-08, -1.05258406e-08,
          8.01214100e-08, 1.26558874e-07, -5.71000269e-09,
          -1.85169057e-07, 4.40628938e-08 ]
      - [ 3.63327896e-10, -7.69588171e-10, -3.71337117e-09,
          -7.99827848e-09, 5.33120659e-10, -2.20999738e-07,
          -1.63994727e-07, 1.09524841e-07, -1.55929683e-07,
          -2.11498502e-07, -2.13213447e-08, 7.34336965e-08,
          -4.14455208e-08, -7.29797662e-08, -7.72519684e-08,
          -7.23716109e-09, -2.53252495e-08, 2.42749731e-08,
          -3.64512118e-08, 2.56799293e-08 ]
      - [ -4.84028095e-10, -6.27445385e-09, -1.99044461e-08,
          -2.07794866e-08, -6.00830186e-09, -8.49111217e-08,
          5.15532008e-08, 1.13375300e-07, 8.19889081e-08,
          -1.37481194e-07, 2.10053116e-07, 9.38466300e-08,
          1.19668059e-07, -4.31907381e-07, 2.19571508e-08,
          -1.01531512e-07, -1.26324366e-07, -1.01439412e-07,
          -6.24846876e-08, -1.55439935e-07 ]
      - [ -1.85596760e-09, -3.49543017e-09, -1.16943246e-08,
          3.10071913e-10, -4.63258942e-09, -1.27710379e-07,
          5.60033726e-08, 1.11572419e-07, 4.43823041e-08,
          -1.32871008e-07, 1.46117486e-07, 2.20307061e-09,
          9.95053355e-08, -2.91400880e-07, 2.36069262e-08,
          -3.91327895e-08, 1.44927981e-07, -4.28668523e-09,
          -3.25585567e-08, -8.66261658e-08 ]
      - [ -5.85886362e-09, -1.26748869e-08, -2.21347030e-08,
          -7.37960582e-09, 2.86577845e-10, 2.01221866e-08,
          -1.16681505e-07, 1.31070308e-07, -7.52740661e-08,
          -4.56189220e-08, -1.81160615e-07, -2.10845485e-07,
          -2.61051838e-07, -4.78750849e-07, -7.27656939e-08,
          -1.28094555e-07, 3.53839908e-07, 3.93539892e-07,
          -3.22055513e-07, -4.85097019e-07 ]
      - [ -4.16273549e-09, -7.24844007e-09, -7.41404405e-09,
          -4.89466201e-09, -3.21552673e-09, -1.21749636e-07,
          -3.72502100e-08, 1.28161275e-07, -1.85654443e-08,
          -1.69994820e-07, 1.08907535e-07, -3.77048153e-08,
          8.62415632e-08, -1.80280153e-07, 3.51412126e-08,
          -7.03810414e-08, 1.64024925e-07, -2.61470507e-08,
          2.82887491e-08, -6.24111962e-08 ]
      - [ -8.25294943e-09, -9.47051859e-09, -1.71364984e-08,
          -4.91297714e-09, -3.70645226e-09, 4.28478337e-08,
          2.05555253e-08, -6.19445544e-08, 7.16055837e-08,
          -3.61874086e-08, 1.39570091e-07, 1.90263769e-08,
          1.07486883e-07, -1.05443846e-07, 5.38566312e-08,
          -5.47854277e-08, 2.50862200e-07, 1.77861466e-07,
          -1.23916934e-07, -9.34917139e-08 ]
      - [ -1.20433494e-08, -9.40432709e-09, -1.91862188e-08,
          8.14592571e-09, -3.28681371e-09, -8.46642436e-08,
          8.03906417e-08, 8.94781707e-08, 8.58269615e-08,
          -4.94891594e-08, -5.29559543e-08, -1.25109807e-07,
          5.80665471e-09, -3.04080771e-07, 9.37987750e-08,
          -6.46432881e-08, -2.79549766e-07, -3.74132991e-09,
          1.96181816e-07, 2.91358830e-08 ]
      - [ 8.83260043e-09, -6.72748657e-09, -5.65695135e-09,
          -5.44328263e-11, 9.03839492e-09, 2.16343750e-07,
          -3.41505313e-07, -7.31163539e-08, -2.69604953e-07,
          1.57427010e-07, -1.57780597e-08, -2.07964803e-07,
          -3.62448240e-08, 4.42587805e-07, -1.68550436e-08,
          -1.28134971e-07, -2.32727515e-07, 1.38865950e-08,
          2.03316134e-07, 1.09310150e-07 ]
      - [ 1.55781318e-10, 8.86095253e-10, -6.27393337e-09,
          1.59289593e-09, -4.79236817e-10, 6.03193513e-08,
          7.56705489e-08, 3.20948672e-08, 8.69663594e-08, 3.87294392e-08,
          7.35186845e-08, 9.39459355e-08, 6.65252102e-08, 1.49031735e-07,
          2.76848908e-08, 7.41230579e-08, 1.44272381e-08, 2.45925431e-08,
          -3.01604928e-08, -2.28220969e-07 ]
      - [ -2.90444691e-09, 1.01164810e-09, -4.08076239e-09,
          -7.89382587e-11, -1.39847067e-09, 6.83511274e-08,
          1.41743797e-07, -1.85402715e-08, 1.50864864e-07,
          4.23901980e-09, 2.09291898e-07, 1.25973969e-07, 1.70505487e-07,
          -6.68974209e-08, 1.14820693e-07, -1.22021120e-07,
          -1.33230188e-07, -1.50065389e-07, 2.87576341e-07,
          3.21558247e-07 ]
      - [ -2.75688361e-09, -1.56052327e-09, -3.46833007e-09,
          -1.37500156e-09, -1.26890010e-09, 8.74710082e-09,
          2.75021672e-09, -3.92100574e-08, 7.19278948e-09,
          -3.48400042e-09, -9.02622244e-09, 7.30410932e-09,
          -1.69876930e-08, -8.33639220e-08, -2.45082390e-08,
          2.41377016e-08, 4.24151665e-08, -4.37434835e-08,
          2.56704080e-08, -6.49218350e-08 ]
      - [ -1.60849307e-08, -6.14244966e-09, -3.15054791e-08,
          -7.54094120e-09, -3.23753868e-09, 9.75579795e-08,
          1.18735613e-07, 6.73241907e-09, -1.68410814e-08,
          3.85418630e-08, -1.01603398e-07, -2.03259873e-07,
          -1.41129746e-07, -7.37974403e-07, -3.00001204e-07,
          -8.64559752e-07, -1.27713335e-07, 1.20982250e-07,
          5.14841929e-07, -2.90655908e-08 ]
      - [ -2.17870100e-09, 1.55040522e-10, -4.68969530e-09,
          -3.07748049e-09, -2.54453902e-09, -1.29538606e-07,
          4.34840430e-08, 2.12774808e-07, 9.13020628e-08,
          -2.22002171e-07, 7.40973789e-08, 4.50337767e-09,
          5.45521779e-08, -3.00241794e-07, 1.90135356e-08,
          1.96696597e-08, -2.20549925e-08, 8.97081236e-08,
          2.31707133e-08, -1.28478305e-07 ]
      - [ -6.07201123e-10, -1.48125590e-09, -2.84168133e-09,
          -6.57512766e-10, -5.29819466e-10, -7.95264015e-08,
          1.04066320e-08, 3.23252010e-07, 1.13328253e-08,
          -7.77271936e-08, 1.73767809e-08, -5.31158193e-08,
          2.19628298e-08, -2.70419406e-07, -9.80826353e-09,
          -8.14297323e-08, 6.72884468e-08, 8.60278959e-08,
          -5.78502295e-08, -1.28398710e-07 ]
      - [ -9.24260224e-10, -1.89081772e-09, -1.19055843e-09,
          7.33087313e-10, -8.74270045e-10, -2.71409171e-08,
          1.57352282e-08, -1.47522769e-07, 2.49448000e-08,
          -4.67023398e-08, 7.25726679e-08, -4.84591816e-08,
          5.79561110e-08, 1.63697660e-08, 4.26175220e-08, 2.13570015e-08,
          8.84998741e-08, 2.80201498e-08, -7.30175671e-08,
          -1.66109828e-08 ]
      - [ -2.57042720e-09, -1.05259870e-10, -7.10388592e-09,
          -1.79288429e-09, -6.17941642e-10, 8.45954062e-08,
          -1.42186110e-07, -6.99545879e-08, -8.89098146e-08,
          1.47763926e-08, -1.75543519e-07, 3.86900219e-08,
          -1.67874234e-07, -7.32419494e-08, -2.28123227e-08,
          -5.57188535e-08, 8.21762924e-08, 2.74978493e-08,
          -3.37190791e-08, -1.52666626e-08 ]
      - [ -3.33232747e-10, -5.48391166e-10, -7.29215077e-10,
          5.26849354e-12, -5.82571630e-11, -2.49791920e-08,
          -1.29813227e-08, -5.61037723e-08, -9.10794373e-09,
          -3.06833314e-08, 3.01420799e-09, -6.15840747e-08,
          4.20898116e-09, -9.07305449e-08, -9.35753341e-09,
          -7.24873175e-08, 3.49728282e-08, 1.26438579e-07,
          2.08480211e-09, -1.39145797e-07 ]
      - [ -2.18581694e-10, 8.98809430e-11, -3.47961193e-09,
          2.41793197e-10, -4.49444065e-10, -1.51011559e-08,
          -2.90529503e-08, -1.46900916e-07, -1.98495282e-08,
          -1.11066019e-08, 1.07180727e-08, 9.50315648e-09,
          1.46191699e-08, -6.47779643e-08, 8.76057449e-09,
          -1.55055986e-07, 2.20724033e-07, 1.61501177e-07,
          -6.32824708e-08, 4.63629632e-08 ]
      - [ -1.46923709e-10, 4.68175602e-11, -3.45497242e-11,
          -1.04664877e-09, 4.55324306e-10, 2.45892267e-08,
          -1.18715285e-07, -5.77961501e-08, -9.70097602e-08,
          3.13967554e-08, -1.23148212e-07, -8.69078107e-08,
          -2.14475318e-08, -1.52370887e-07, -3.14646229e-08,
          1.78889835e-07, -3.19934685e-07, -2.54913122e-08,
          2.60417863e-07, 2.54471928e-08 ]
      - [ 7.60757568e-10, 1.69592052e-09, 3.85516508e-10, 2.71600187e-09,
          1.27730981e-09, 1.26545459e-07, 5.67549812e-08, 9.28860047e-08,
          5.92775535e-08, 1.24203751e-07, 3.64646646e-09, 7.74902720e-09,
          4.01784597e-08, 3.87794437e-08, 1.05518181e-08, 6.13967259e-08,
          2.32740192e-08, 9.59148636e-08, 2.41076208e-08,
          -1.40356590e-07 ]
      - [ 1.55878899e-09, 1.91454541e-09, 1.47541690e-09,
          -7.73528352e-10, -3.04746783e-10, 5.71754732e-08,
          -2.64482392e-08, -1.92845377e-07, -2.30251089e-08,
          5.34382885e-08, 2.25391208e-08, 1.36004104e-07, 2.03020214e-08,
          -1.45585560e-07, -6.00625860e-09, 1.80380354e-07,
          1.07527107e-07, 6.27709795e-09, -1.68552631e-07,
          -9.21028942e-08 ]
      - [ 2.56734545e-09, 5.50322143e-09, 8.08773493e-10, 8.02263767e-09,
          7.74048914e-09, 3.75542868e-07, -5.21485894e-08,
          -1.69610274e-07, -3.97492812e-08, 3.65750452e-07,
          -4.19995594e-08, 2.24634604e-07, -1.47941881e-08,
          -2.83527385e-07, -6.94756466e-08, -1.05305325e-07,
          -9.86007791e-08, -1.36590600e-07, 5.98904890e-08,
          2.61485468e-07 ]
      - [ -2.93011104e-09, -2.65789835e-09, -4.71616346e-09,
          -4.05323802e-10, -5.60143765e-10, 6.30634034e-09,
          1.89900673e-09, -7.16593647e-08, 6.25413765e-09,
          -2.92642244e-09, -1.89297520e-08, 2.63187818e-08,
          1.20256338e-09, 5.32655031e-10, -1.87559106e-08,
          4.08430756e-09, 9.89771287e-09, 3.87966139e-08,
          -6.24639451e-09, -6.14523756e-08 ]
      - [ 3.01738989e-09, 1.15065726e-08, 1.30838798e-08, 2.73694560e-08,
          9.49970147e-09, 1.87135413e-07, -7.79747040e-08,
          -5.67247618e-08, -6.77897347e-08, 1.39629719e-07,
          -3.25757355e-07, -7.77984965e-08, -1.93606056e-07,
          1.32469529e-08, -2.12268727e-08, 8.37449221e-09,
          -2.15076543e-08, -2.91811286e-08, -3.37935440e-08,
          1.29800270e-07 ]
      - [ -1.99229883e-10, -5.53143031e-10, -8.66924477e-10,
          -2.78344847e-10, -4.14925871e-10, -1.33348635e-07,
          -4.78737086e-08, -9.65935314e-08, -4.65298733e-08,
          -1.31942244e-07, 1.72220478e-08, -3.65665862e-08,
          1.88506259e-08, -3.32501848e-08, 1.41038097e-08,
          -4.01676772e-08, 4.47091031e-09, 1.05482215e-07,
          3.51291227e-08, -7.09761636e-08 ]
      - [ 7.86288756e-10, 2.04402148e-10, -7.54202811e-10,
          4.65020605e-10, 1.39425485e-10, -2.46053311e-08,
          1.68785128e-08, -2.79404389e-07, 1.99498462e-08,
          -2.23614194e-08, 3.45688633e-08, 2.97882004e-08,
          3.80315051e-08, -1.66744059e-07, 2.39279903e-08,
          -2.69292784e-08, 1.30596547e-07, 1.29349019e-07,
          -3.09514414e-09, -4.19348751e-08 ]
      - [ 2.76807188e-11, 2.17468132e-09, -1.42925127e-09,
          6.12825346e-09, 2.47626231e-09, 3.94284108e-08,
          -2.71892375e-08, 4.31669314e-08, -2.58901984e-08,
          3.19765086e-08, -1.22628279e-07, 8.60965628e-08,
          -1.68780744e-07, 4.14759995e-08, -7.50957696e-08,
          -1.38641392e-08, -1.02479113e-07, -7.84621363e-08,
          2.44425813e-08, 3.91246431e-08 ]
      - [ 8.98587871e-11, -3.06555836e-10, 7.96991362e-11,
          -3.63497510e-10, -3.13733553e-11, -2.48433629e-08,
          7.06243730e-09, -6.17457800e-08, 8.11188006e-09,
          -2.88959452e-08, 3.74658349e-09, 1.70833425e-09,
          3.23114158e-09, -3.47550255e-08, -3.18949334e-09,
          4.01773406e-08, -1.45375170e-08, -3.08078789e-08,
          2.21880327e-08, -4.33150014e-08 ]
      - [ 6.66634192e-10, 7.86520016e-10, 4.06661815e-10, 1.40145381e-10,
          4.59552091e-10, 3.47535156e-08, -6.97571112e-10,
          3.70136171e-08, 1.56791480e-09, 3.35210650e-08, 4.33524050e-10,
          9.26106623e-08, -2.25397501e-09, 4.58447644e-08,
          -2.51268095e-09, -1.47354271e-08, -1.03664952e-07,
          -2.94184623e-08, 5.30390025e-08, 1.36285749e-07 ]
      - [ 1.34065603e-09, 3.37726291e-10, 2.98565972e-09,
          -5.84523496e-09, 1.21488319e-09, -7.68039055e-09,
          -1.81128961e-08, -1.81579374e-09, -7.86201593e-09,
          -3.49873090e-08, -3.55956580e-08, -6.71782487e-08,
          -1.70498442e-08, -1.86450364e-07, -2.41114932e-08,
          -6.01862737e-08, 1.35122733e-07, -3.97500699e-08,
          -2.44171702e-07, 2.97942222e-07 ]
      - [ 1.15653886e-09, 1.91588989e-09, 2.85982127e-09, 2.80579804e-09,
          1.38385492e-09, 4.93028125e-08, -8.42698533e-09,
          9.53181072e-08, -5.20877252e-09, 5.53681261e-08,
          3.00437435e-08, -1.04520270e-09, 2.40916513e-08,
          1.26234440e-07, 2.85068573e-08, 1.42311247e-08,
          -8.27432558e-08, 4.39620003e-08, 2.84922610e-08,
          -1.19500783e-08 ]
      - [ 1.18193411e-09, 1.39302214e-09, 7.86811949e-10, 3.71948389e-10,
          8.42600711e-10, 1.06712235e-07, 3.20168176e-08, 1.53611253e-07,
          3.37583863e-08, 1.06377335e-07, 1.99756283e-08, 1.34532854e-07,
          -2.20445551e-09, -1.11706078e-09, -5.19144905e-09,
          1.54593579e-07, -7.22346716e-09, -1.18336118e-07,
          -3.47023317e-08, 5.65856553e-08 ]
      - [ 3.91250898e-09, 9.90732607e-10, 6.67419542e-09,
          -1.43487844e-09, 1.48800450e-09, 3.15669553e-08,
          -2.17609326e-08, 5.98223551e-08, -7.26517557e-09,
          2.19657146e-08, 6.89028852e-08, -3.38179582e-08,
          5.79034776e-08, -6.74659830e-08, 4.48287629e-08,
          -2.52912891e-08, -7.04714509e-08, -9.82608199e-08,
          -7.87231684e-08, -3.95091533e-08 ]
      - [ -2.38000071e-11, -1.02323297e-11, -2.40679143e-10,
          -3.20799803e-10, -5.38616859e-11, -1.56288298e-08,
          -1.27610305e-08, -7.73867581e-10, -9.54429424e-09,
          -1.98568681e-08, 2.26175767e-09, -2.54821497e-09,
          4.11159240e-09, 2.84438650e-09, -2.46428500e-09,
          5.93932192e-08, -3.63339296e-08, 2.32646471e-08,
          2.36904363e-08, -8.12587615e-08 ]
      - [ 1.48926171e-09, -2.94646252e-10, 4.61555327e-09,
          1.62246661e-09, 5.37056044e-09, 5.99410157e-08,
          -3.34643921e-08, 9.76264261e-08, -1.62655844e-08,
          -2.58884625e-09, 1.19063856e-07, -3.27840155e-08,
          2.56300279e-08, 2.50054939e-07, -4.66746748e-08,
          2.80320023e-07, -1.81649582e-07, -1.67776932e-07,
          4.73116257e-09, 5.68983189e-08 ]
      - [ 6.65238212e-11, 1.86512986e-10, -5.87038447e-12,
          -3.93446525e-11, -2.13543749e-11, -7.96057797e-09,
          1.64446001e-09, -1.45065870e-09, 3.23638533e-10,
          -4.90327778e-09, 1.55208166e-08, 3.80452185e-08,
          1.07464837e-08, 2.59856279e-08, 4.51112170e-09, 7.06215419e-10,
          -3.29126131e-08, 2.35902164e-09, 5.95155996e-08,
          -4.04361167e-08 ]
      - [ 1.64435121e-09, 1.12211984e-09, 1.82990367e-09, 2.20669061e-09,
          1.20477350e-09, 4.68126649e-09, 5.83849635e-09,
          -3.40390613e-08, 8.85125306e-10, 2.63665001e-08,
          2.74711915e-08, 1.77560921e-07, 1.10037508e-08,
          -3.08700798e-08, -5.32560973e-09, -6.00598895e-08,
          -1.01029755e-07, -1.72091248e-08, 8.97257806e-08,
          2.07663700e-08 ]
      - [ 6.45303144e-09, -1.11045013e-08, 3.06560732e-09,
          -7.02638969e-09, 3.84954690e-09, -8.38255545e-08,
          7.82994007e-08, -4.06884396e-07, -4.17752872e-08,
          6.08141804e-08, 4.03420188e-07, 3.42724853e-08, 5.06573372e-07,
          -7.33927896e-09, 2.09420875e-07, 1.05242918e-07,
          7.34790078e-08, -1.32338073e-07, -5.75428096e-08,
          1.50956314e-09 ]
      - [ -1.31025835e-09, -1.49966872e-09, -1.57941249e-09,
          -1.94168903e-09, -9.72557812e-10, 2.02923878e-09,
          8.60793463e-08, -5.63973330e-08, 7.62459251e-08,
          4.34480860e-08, 2.41053527e-07, 1.87626213e-07, 2.55131454e-07,
          1.87074789e-07, 1.27844999e-07, 1.07749479e-07,
          -1.08631170e-07, -1.47312988e-07, 1.23396902e-07,
          1.73286679e-07 ]
      - [ 3.03537862e-09, -1.01232314e-10, 9.90815341e-09,
          -2.83908097e-09, -2.41106690e-09, -4.45873560e-08,
          6.35745181e-08, -2.43465053e-08, 9.79346382e-08,
          -8.32403089e-08, 8.47540704e-08, 1.79242605e-07,
          1.47365085e-07, -4.91782224e-08, 1.25650942e-07,
          1.31367074e-07, -2.94428617e-07, -1.41198583e-07,
          2.18578563e-07, 8.79028264e-08 ]
      - [ 4.78619144e-09, -7.98525601e-09, 1.09072991e-08,
          1.90744620e-09, 2.50065879e-09, 1.89538940e-09, 7.74352813e-08,
          1.58496704e-07, 6.11856947e-08, 4.54641942e-08, 1.35462599e-07,
          2.10237161e-07, 1.35783523e-07, 3.23572891e-07, 9.57238129e-08,
          1.65542147e-07, 7.23384375e-08, 2.48147902e-08,
          -4.10983674e-08, -6.54459811e-08 ]
      - [ 6.30372199e-09, 5.35295364e-09, 1.01535438e-08, 3.91747879e-09,
          1.97271244e-09, 1.20872258e-07, 3.51477041e-07, 2.38037686e-07,
          3.26536764e-07, 1.58208380e-07, 3.68041754e-07, 4.06890337e-07,
          3.93638771e-07, 1.28722050e-07, 2.59871911e-07, 1.88229848e-07,
          -3.57265542e-08, -1.78422482e-07, 5.11290317e-08,
          1.07926269e-07 ]
      - [ -4.08928180e-09, 1.01966524e-08, -1.88640478e-10,
          1.21094272e-08, -4.23502833e-09, -1.20271565e-07,
          4.08019929e-07, -4.63361346e-07, 3.68189319e-07,
          -7.74583171e-08, 3.19346469e-07, 3.42009315e-07,
          4.02105115e-07, -9.92650158e-08, 2.43607673e-07,
          2.03547629e-07, 5.53843904e-08, -2.23434299e-07,
          -4.87887739e-08, -1.19821610e-08 ]
      - [ -2.52311434e-08, -1.80889170e-08, -3.28342509e-08,
          -2.02564152e-08, -2.41168840e-09, -5.17720302e-08,
          -5.65466500e-08, -7.87011558e-08, -1.44193621e-07,
          2.07411546e-08, -3.11639440e-07, 1.48654822e-08,
          -3.26227109e-07, -2.72379538e-07, -2.44354993e-07,
          8.84291680e-08, -2.46405563e-08, -1.49638211e-07,
          -2.40812366e-08, 1.05568425e-07 ]
      - [ 3.05580539e-09, 1.70628241e-13, 2.58890753e-09,
          -3.11262571e-09, 4.77985485e-10, -1.03838850e-07,
          -6.65585347e-08, -1.20610238e-07, -8.89429757e-08,
          -9.66199920e-08, -2.03481562e-07, -9.98581768e-08,
          -1.82302486e-07, -1.77147527e-07, -2.19798594e-07,
          4.37980816e-07, -2.01024861e-07, -2.23555233e-07,
          9.36057702e-08, 1.76382272e-07 ]
      - [ 1.70267589e-09, 1.72970072e-09, -2.40109688e-09,
          -3.03077274e-09, 1.12159615e-09, -3.05007831e-07,
          1.85710164e-07, -2.23216261e-07, 1.05550214e-07,
          -1.47630075e-07, 2.42137645e-07, 9.79278525e-08,
          2.14780954e-07, 6.17061673e-08, 1.95921103e-07,
          -2.94416918e-08, -6.43346425e-08, -1.33917482e-08,
          1.10090411e-07, -2.15764224e-08 ]
      - [ 2.66235700e-09, 7.95405131e-10, 5.82919890e-09, 4.24694102e-09,
          3.55123125e-10, 1.37994798e-08, 1.14374139e-07,
          -5.49081669e-08, 9.13814304e-08, 7.88648080e-08,
          1.86707396e-07, 2.79890600e-07, 1.82423108e-07,
          -1.31272103e-07, 9.28264257e-08, -7.88005252e-08,
          -1.54875323e-07, 1.20915431e-07, 3.28308403e-07,
          -4.83950444e-08 ]
      - [ -1.78302273e-09, 2.74552514e-09, -8.98316443e-09,
          1.44931522e-09, -6.03033845e-10, 6.14959674e-08,
          3.03617860e-08, -6.67548719e-08, 3.29520411e-08,
          8.42450874e-08, 6.93971387e-08, 1.01443717e-07, 4.11916510e-08,
          1.63005272e-08, 3.79690022e-08, 6.68429507e-08,
          -1.38429129e-07, -8.72600125e-09, 5.85955711e-08,
          3.90713950e-08 ]
      - [ 3.13958387e-10, 1.85729865e-09, -2.37168774e-09,
          -4.66050354e-09, 1.47098078e-09, 1.13355028e-07,
          -1.23364483e-08, 1.15442383e-07, 2.35128326e-08,
          7.45570858e-08, -7.10630488e-08, -6.80224659e-08,
          -6.27504093e-08, -2.40730060e-07, -7.73597577e-08,
          4.91090013e-08, -1.01999454e-07, -1.73259863e-07,
          1.06934186e-08, 1.56091289e-07 ]
      - [ -6.46219134e-10, -1.48893398e-09, 9.65420188e-09,
          9.99257121e-10, 3.17626303e-09, 8.69919887e-08, 2.37322499e-08,
          5.30544071e-07, 4.25683915e-08, 8.21318338e-08,
          -8.29112690e-09, 1.93280112e-08, -2.73260383e-08,
          1.91209807e-07, 4.22619967e-10, 9.03125823e-08,
          -9.75341408e-08, 3.29077245e-08, 5.86280109e-08,
          -1.10011072e-07 ]
      - [ 1.99998218e-09, 8.97357855e-10, 1.99600936e-09,
          -1.86625604e-09, 3.20194982e-09, 1.16242944e-07,
          6.50267538e-08, 2.83831003e-08, 6.23524556e-08, 1.17269458e-07,
          4.90144814e-08, 1.55264885e-07, 4.29152216e-08,
          -8.54134470e-08, 2.51576786e-08, 1.42795344e-07,
          1.60921250e-08, -4.53068445e-08, -1.02366620e-07,
          1.08963514e-08 ]
      - [ 3.33684724e-09, 2.76160783e-09, 3.24197758e-09, 5.86143800e-10,
          2.40845432e-09, 3.16789119e-08, 4.99035409e-08, 5.94148766e-08,
          5.38624256e-08, 5.60087265e-08, 4.69230486e-08,
          -8.02582605e-08, 4.79419242e-08, -7.69714248e-08,
          3.06846424e-08, 3.94319599e-08, -4.48896920e-09,
          -3.96116704e-08, -4.46352821e-08, 5.16646850e-08 ]
      - [ -6.80017287e-09, -3.72725806e-09, -5.01199260e-09,
          -3.82736776e-09, -1.64968383e-09, 3.89246253e-08,
          5.89556715e-09, 9.56316839e-08, -4.58810634e-09,
          5.77903130e-08, -9.46253351e-08, 5.02798692e-08,
          -1.12084642e-07, -1.82461282e-08, -7.51438023e-08,
          -1.69313495e-07, 2.40417393e-07, -1.99072758e-07,
          -2.88413666e-08, 2.81001718e-07 ]
      - [ 8.86285212e-10, 1.06187832e-08, 5.56132518e-09, 3.99674605e-09,
          1.10067488e-09, 5.18637933e-09, -3.08814911e-08,
          1.16058160e-07, -2.17846470e-08, -9.83976989e-08,
          -1.11774263e-07, -1.26451397e-07, -1.03637262e-07,
          -9.48902894e-08, -8.58125091e-08, 7.70223778e-08,
          -7.64640475e-08, -7.14334618e-08, -6.97131819e-09,
          1.13564532e-07 ]
      - [ -1.66388722e-10, 9.48947934e-11, 6.71691799e-11,
          -4.59282369e-11, -3.87645367e-11, -6.72874156e-09,
          -2.61136854e-08, 4.28673061e-08, -2.95784748e-08,
          1.83872473e-09, 2.90875701e-09, 3.34856658e-08, 2.67782840e-09,
          5.96082046e-08, 7.72975106e-09, -3.80804579e-08,
          -6.63460611e-08, 9.31941031e-08, 3.51379938e-08,
          -1.43691521e-08 ]
      - [ 1.77441262e-09, 2.67945843e-09, 2.67928790e-09,
          -2.00538364e-09, 2.51948262e-09, 4.92819510e-08,
          4.47341186e-08, -9.74638041e-08, 4.54333637e-08,
          4.35204122e-08, 4.81646900e-08, 2.03931705e-07, 4.09655456e-08,
          4.12915071e-08, 2.35966038e-08, -6.97097491e-09,
          -4.81687863e-08, 5.68841543e-08, 1.35731746e-08,
          -3.57725938e-09 ]
      - [ 2.87791968e-09, -4.75444295e-10, 1.22793367e-08,
          -3.32767658e-09, 2.87563484e-09, 5.62441755e-08,
          -9.43055127e-08, 2.29125533e-07, -8.16587189e-08,
          2.76338668e-08, -1.31755002e-07, 1.11429593e-07,
          -1.06245885e-07, 6.71956784e-08, -6.90306194e-08,
          2.26310050e-07, -1.50791024e-07, 1.15528858e-08,
          1.54113906e-07, -1.43382053e-07 ]
      - [ 1.58718834e-08, -3.92407840e-09, 3.30646195e-08,
          -6.35670006e-09, 1.10980878e-08, 1.01301009e-06,
          -5.08254800e-07, 4.76994558e-07, -4.39053139e-07,
          4.65696246e-07, 1.54251154e-07, -6.50787058e-07,
          1.93786931e-07, 7.80883511e-07, 1.04719639e-07, 1.45339357e-07,
          -1.18521648e-09, 1.41927231e-07, -4.69295927e-08,
          -1.38505996e-07 ]
      - [ 2.67418998e-09, 1.57112834e-09, 5.48256995e-09,
          -1.28163247e-09, 2.15704610e-09, 1.09511411e-07,
          4.87841554e-08, 7.50501243e-08, 4.62788776e-08, 9.17530372e-08,
          3.72174789e-08, 1.45303673e-07, 3.23445946e-08,
          -8.78084307e-08, 2.82422210e-08, 3.47273868e-07,
          1.13411083e-07, -7.82002729e-08, -2.02635803e-07,
          -5.23488559e-08 ]
      - [ 1.08237908e-08, 3.71895736e-09, 2.20185381e-08,
          -1.24719357e-09, 6.55527499e-09, -8.74962538e-08,
          6.38990283e-09, 4.06589784e-08, 1.78625044e-08,
          -4.52089317e-08, 6.10601631e-08, -2.41545280e-07,
          7.98008344e-08, -1.96825766e-07, 6.78070720e-08,
          3.74824680e-07, 7.55743557e-08, -2.87148936e-07,
          -1.35198633e-07, 5.62306148e-08 ]
      - [ 4.20960350e-10, -1.61589420e-09, 3.21002158e-09,
          -2.03627382e-09, -4.37066980e-11, -3.06944905e-08,
          -4.88186345e-08, 9.09537903e-08, -5.76653676e-08,
          -8.91946073e-09, -5.05691951e-08, -1.80828970e-08,
          -2.94802831e-08, -4.71206469e-08, -2.01286703e-08,
          -1.85448652e-08, 5.69786955e-08, -4.31899423e-08,
          1.11020846e-08, -2.46339500e-08 ]
      - [ 2.87213120e-09, 1.54515956e-09, 1.10929514e-08,
          -1.19945209e-09, 4.04188949e-09, -4.97368946e-09,
          -1.23442575e-07, 1.91735708e-07, -1.46133274e-07,
          -1.17095320e-08, -2.44095503e-07, -5.59769475e-08,
          -2.14486732e-07, -1.15673693e-08, -1.86054095e-07,
          1.58811190e-07, -6.96427520e-08, -9.56401038e-08,
          1.61022449e-08, -1.42336249e-08 ]
      - [ 9.89745508e-10, 7.97312147e-11, 3.92526367e-09,
          -2.46577370e-10, 5.69469194e-10, -5.09652658e-08,
          2.57625903e-08, 7.97031561e-08, 1.34216025e-08,
          -2.19354259e-08, 3.37516326e-08, -3.24727556e-09,
          4.44436985e-08, 7.88433283e-08, 4.29631086e-08, 6.62098287e-08,
          -5.84498849e-08, 5.14919734e-08, 1.34287376e-07,
          -1.41034150e-07 ]
      - [ 2.21969798e-09, 2.48098520e-09, 3.45628060e-09, 3.06527692e-09,
          7.73859976e-10, -3.54587648e-08, 1.84685209e-08,
          -1.22415386e-07, 6.39633724e-09, -2.68664202e-08,
          1.36023059e-08, 6.93661732e-08, 1.92009715e-08,
          -7.57117107e-08, 3.63722941e-09, 5.81338497e-08,
          3.78192802e-08, 1.66274944e-07, 2.73531793e-08,
          -2.21600160e-07 ]
      - [ 4.82033635e-10, 6.97301605e-10, 5.90082150e-11, 3.25493366e-09,
          2.89072072e-10, 5.36193241e-08, 4.53555451e-08, 1.29466699e-07,
          4.28658531e-08, 5.43662608e-08, 2.12740723e-08, 1.06313600e-07,
          -3.10171044e-09, 1.98265084e-07, 3.67679687e-09,
          -1.08226736e-07, 1.99582871e-07, 2.12300151e-07,
          -1.12864932e-07, -2.48618392e-07 ]
      - [ 1.09178233e-09, 2.73693823e-09, 2.75601164e-09, 3.46685058e-09,
          6.29834296e-10, 1.19200514e-07, 1.44434367e-07, 3.32584477e-07,
          1.26227263e-07, 1.41563348e-07, 1.92017581e-07, 3.35826883e-07,
          1.33776496e-07, 1.00582952e-07, 1.34553616e-07, 1.45218024e-07,
          2.47786236e-08, -2.84647371e-07, -8.92356837e-08,
          1.44293907e-07 ]
      - [ 2.57243282e-10, 2.80858936e-09, 3.95314625e-09, 8.24640889e-09,
          -3.27720462e-10, -1.23094253e-07, 1.26026762e-07,
          -4.65092796e-07, 9.43622140e-08, -9.93651810e-08,
          2.48126071e-07, 1.32347424e-07, 2.02049080e-07, 1.57568905e-07,
          1.38094947e-07, -1.11044951e-08, 1.74668173e-07,
          -1.25746922e-07, -1.68032884e-07, 1.12268083e-07 ]
      - [ 3.54756580e-09, -2.58056998e-09, 5.36992051e-09,
          3.31555094e-09, 4.28787184e-09, 4.83171441e-08, 1.64268556e-07,
          2.14513662e-07, 1.13385049e-07, 1.74364445e-07,
          -5.21067669e-08, -2.46999036e-07, -4.39124186e-08,
          -9.28689701e-07, -8.61407941e-08, 1.13695869e-07,
          -4.97045562e-07, -5.54540918e-07, 6.33213801e-07,
          3.93595968e-07 ]
      - [ -2.43316323e-09, 4.01397665e-10, -2.18060925e-09,
          2.80216761e-09, 1.15673993e-09, -3.47374041e-08,
          -5.95990590e-09, -7.10861485e-08, -4.81713407e-08,
          -4.33570442e-08, -2.04566476e-07, -3.08055462e-07,
          -2.23934222e-07, -2.36585166e-07, -1.95911880e-07,
          1.63483563e-07, -5.14794465e-08, -1.40649348e-07,
          -7.21686035e-08, 7.99597331e-08 ]
      - [ -1.38523715e-09, -1.34454903e-09, -3.64223207e-09,
          6.14250295e-09, -2.13008056e-09, -8.02275721e-08,
          -1.04610119e-10, 1.93211207e-07, -1.38996494e-08,
          -5.75865542e-08, 7.23113391e-09, -1.38324808e-07,
          -1.11232925e-08, 2.45480948e-07, 4.85830975e-09,
          -4.66569077e-08, 1.36046495e-07, 2.95638944e-08,
          -1.30753904e-07, -7.12295716e-08 ]
      - [ 7.33399008e-10, -6.84170387e-10, -4.39119630e-10,
          3.56219831e-09, 8.66653416e-10, 2.82611037e-08, 2.83338686e-08,
          -1.30299881e-07, 2.10271143e-08, 2.04513722e-08,
          7.71908901e-08, 7.90218451e-08, 6.35980584e-08,
          -5.13340517e-08, 4.13849364e-08, -1.26034223e-07,
          1.57376533e-07, 1.09978082e-07, -1.25610796e-07,
          1.02675450e-08 ]
      - [ 5.28970590e-10, 3.75833781e-10, 7.55025154e-10,
          -2.39839104e-09, 5.29882083e-10, 5.04366824e-08,
          4.79639581e-08, 2.74720069e-08, 6.23216323e-08, 3.12660831e-08,
          6.09899402e-08, 1.28744006e-07, 4.97271273e-08,
          -2.60652058e-07, 4.64075001e-08, 1.03573052e-08,
          -3.80845542e-08, -2.18643308e-07, 4.98770358e-09,
          2.80126642e-07 ]
      - [ -2.72275944e-08, 1.75707926e-09, -1.96291836e-08,
          -6.19173912e-09, -9.93788873e-09, -2.55982428e-07,
          1.16472243e-07, -4.58129335e-07, 1.07460352e-07,
          -1.89143520e-07, -4.54852369e-08, 5.95655720e-08,
          1.23580779e-09, -3.77043847e-07, -2.88868787e-08,
          -9.29355863e-08, 3.38342190e-08, -1.43650325e-07,
          9.84197968e-09, 2.22742187e-07 ]
      - [ -3.30222605e-09, -2.16896900e-09, -4.17735357e-09,
          -2.39981035e-09, -1.26155986e-09, -3.75232361e-08,
          -1.84036555e-08, -6.28961274e-08, -2.43444873e-08,
          -2.78801089e-08, -3.66013317e-08, -5.24434967e-08,
          -3.24384963e-08, -5.04376025e-08, -2.75316214e-08,
          -1.29467168e-07, 6.99332290e-08, 9.41708578e-08,
          -5.55827384e-08, 1.44282888e-08 ]
      - [ -8.42902548e-09, 1.38879734e-08, -1.52947806e-08,
          -1.84571576e-08, -1.89563532e-10, -2.87501280e-07,
          -4.99572508e-08, -6.14652777e-07, -1.57196894e-07,
          -3.53485291e-07, -2.78196040e-07, 3.61485604e-07,
          -1.63297386e-07, -9.41555470e-07, -1.71202174e-07,
          2.44482919e-07, -1.32519347e-07, -4.51930248e-07,
          1.60748669e-07, 2.21069769e-07 ]
      - [ -1.86116553e-10, -9.34367514e-11, -5.20044730e-10,
          -1.34015854e-09, -5.74325143e-10, -3.14539363e-08,
          1.74283947e-08, -5.83877444e-08, 1.86949940e-08,
          -3.47126203e-08, 1.20162689e-08, -5.44408110e-08,
          2.00752108e-08, -6.77048320e-08, 6.91379753e-09,
          -5.17458929e-08, 3.34452932e-09, -5.29216564e-08,
          3.69009356e-08, 5.36404947e-08 ]
      - [ 2.60041988e-11, -1.18620364e-10, -5.66448999e-10,
          4.07031880e-10, -7.65317670e-11, 1.00719622e-09,
          1.70220176e-08, -2.26768861e-07, 1.39194531e-08,
          3.65067776e-09, 3.19549756e-08, 3.61540131e-08, 3.02534424e-08,
          -2.34722961e-07, 8.72123529e-09, -2.26958917e-07,
          9.67797149e-08, -1.23544211e-07, 8.47227923e-08,
          1.90002112e-07 ]
      - [ -1.62969183e-09, -3.73523351e-10, 4.96542824e-12,
          -1.72455206e-09, -6.93497371e-10, -2.31715696e-08,
          -4.22268709e-09, 2.96559222e-07, 4.75868900e-09,
          -3.10047099e-08, 8.62159144e-09, -6.42399201e-08,
          1.25464386e-08, 7.86663321e-08, 5.58183437e-08,
          -7.66300232e-08, -1.73515375e-07, -2.15049923e-07,
          1.07898913e-07, 3.51160878e-07 ]
      - [ -6.16642182e-10, -1.02471565e-09, 4.12284581e-11,
          1.30997824e-09, -3.96512045e-10, -4.17828687e-08,
          -2.65171334e-08, -1.33382770e-07, -2.95891756e-08,
          -4.22470876e-08, -3.16010862e-08, -7.22360767e-08,
          -2.16067662e-08, 7.00773342e-08, -2.73930052e-08,
          -7.56563026e-08, 2.62667399e-08, 6.12380973e-08,
          3.14482378e-08, -4.73666582e-08 ]
      - [ -7.57152563e-09, -6.10050455e-10, -4.89907226e-09,
          -1.31099587e-09, -5.45522649e-09, -2.68050371e-07,
          -3.25493204e-07, -6.07653476e-07, -3.40622876e-07,
          -2.85193977e-07, -5.33382774e-07, -3.31478816e-07,
          -5.58592546e-07, -7.65464506e-07, -3.86361648e-07,
          -1.20823032e-07, 3.27054721e-08, 2.31227617e-07,
          -1.82331135e-07, 2.47132505e-07 ]
      - [ -1.29125466e-09, -5.72266345e-10, -9.32447675e-10,
          1.51155666e-09, -2.25171370e-09, -1.40344994e-07,
          -4.75748330e-08, -2.41044926e-08, -5.29653335e-08,
          -1.32037798e-07, -2.27210584e-09, -2.43141329e-07,
          8.27428348e-09, 1.01009022e-07, -1.08381446e-08,
          -8.06909455e-08, 5.13118081e-09, 8.51954525e-08,
          4.62675693e-08, -6.00146208e-08 ]
      - [ -2.97768643e-10, -1.22783916e-09, -1.77445159e-09,
          7.36371364e-09, -1.57305252e-10, -3.05392085e-08,
          -1.23952058e-08, -3.17103712e-07, -2.50674788e-08,
          -2.12323208e-08, -2.04779464e-08, -4.90726002e-08,
          -1.97908694e-08, 2.47430194e-07, -4.32982468e-08,
          -2.93483140e-07, 1.60374483e-07, 3.95634657e-07,
          8.32001703e-08, -3.09122356e-07 ]
      - [ -3.71373332e-09, -2.07114614e-09, -3.92479338e-09,
          5.66527311e-11, -1.48730706e-09, 4.59675675e-08,
          -6.39821494e-08, 1.89892742e-08, -6.84657522e-08,
          4.28158735e-08, -1.28132370e-07, -2.11745252e-08,
          -1.08226132e-07, -3.24259153e-09, -9.88133024e-08,
          -7.82686413e-08, 3.36892185e-08, 7.22057791e-08,
          -1.90690614e-07, 1.16891528e-07 ]
      - [ 1.06918554e-08, 7.55527463e-09, 1.29879281e-08, 1.45400021e-08,
          7.14883153e-11, 6.65685747e-08, -1.07327637e-07,
          4.08313355e-07, -1.44809050e-07, 1.81481514e-08,
          -3.42527528e-07, 7.09669976e-08, -4.55660938e-07,
          -2.45966532e-07, -2.80629848e-07, -1.26606253e-07,
          -3.74739848e-08, 2.69642584e-07, 1.58348513e-07,
          -2.35441244e-09 ]
      - [ -1.84441762e-09, -1.95438665e-09, -3.24814797e-09,
          -3.80063037e-10, -9.29977373e-10, -7.37451700e-08,
          -2.62241464e-08, 1.57139823e-07, -1.51728798e-08,
          -1.05553887e-07, -1.42129636e-07, 5.56533060e-08,
          -1.18700122e-07, 7.47568407e-08, -3.11298987e-09,
          -1.55351874e-08, -9.50582404e-08, 2.08107394e-07,
          4.09083071e-07, -5.22997254e-07 ]
      - [ 1.96412597e-09, 2.22635924e-10, -1.69522107e-09,
          2.36785058e-09, 2.83987278e-09, 1.97628438e-07, 5.10127585e-08,
          9.63091082e-08, 3.39937110e-08, 1.31110824e-07,
          -2.05863309e-08, 2.95766228e-07, -2.78971903e-08,
          -6.40002682e-08, -3.99550437e-08, -5.41077867e-08,
          1.65301145e-07, 3.04245560e-07, -4.45932145e-08,
          -2.35206187e-07 ]
      - [ 4.58661953e-09, 2.10352757e-09, 7.28360083e-09, 8.17539869e-10,
          6.46710285e-09, 1.48338160e-07, 1.46736795e-07, 1.59036873e-07,
          1.10218679e-07, 1.73848548e-07, 2.05158599e-07,
          -1.85241844e-09, 1.59815798e-07, -1.04673399e-08,
          1.78390735e-07, 3.46174716e-07, -3.02402469e-07,
          -3.66959507e-09, 4.87865691e-07, -4.84385680e-07 ]
      - [ 1.45627357e-10, 9.96821514e-11, 1.84363733e-10, 6.67332925e-11,
          -8.44923003e-12, -1.17268861e-08, -3.71568398e-09,
          -1.03810187e-08, -5.07544939e-09, -1.05702496e-08,
          5.21482191e-09, -4.63497951e-09, 6.09609385e-09,
          1.41740508e-09, 4.73492801e-09, 2.49471732e-09, 1.25540929e-08,
          -2.52864734e-08, 1.40596974e-08, 2.79876886e-08 ]
      - [ 4.66944483e-10, 7.60504604e-10, -7.72666445e-11,
          3.57482322e-10, 1.03453175e-11, 3.09580415e-08, 1.28607294e-08,
          -5.80218895e-08, 8.87415208e-09, 5.04836279e-08,
          5.43700907e-08, 7.61160948e-08, 3.94255828e-08,
          -7.42339523e-08, 2.62773181e-08, -4.35434906e-08,
          -3.76127467e-08, -3.73858420e-08, 8.02371432e-08,
          5.08683051e-08 ]
      - [ 5.75362780e-09, 8.50249826e-09, 3.39110573e-10, 8.35441494e-09,
          1.97131000e-09, -3.23689335e-07, 3.74600063e-07,
          4.27036412e-07, 3.79704375e-07, -3.05023860e-07,
          2.13219494e-07, 4.38613796e-07, 2.08564131e-07, 4.16546811e-07,
          2.38254884e-07, 1.36772954e-07, 4.91440801e-07,
          -1.26031210e-07, -1.11821620e-07, -5.27587758e-07 ]
      - [ 4.37806769e-09, 1.30916145e-09, 4.79094275e-09, 1.71990022e-09,
          1.64812541e-09, 6.71448461e-08, 1.25194731e-07,
          -1.05371256e-09, 1.47400854e-07, 3.15799760e-08,
          2.56569621e-07, 2.18381430e-07, 2.22797311e-07, 1.64609204e-07,
          1.73172182e-07, -2.00716457e-07, 2.78120552e-07,
          -1.91315209e-07, 3.10514707e-07, -1.93090486e-07 ]
      - [ 8.15485623e-10, -1.02707523e-10, 3.20813515e-10,
          -1.13989829e-09, 9.78664261e-10, 6.46872422e-08,
          5.11921350e-08, -1.68144382e-07, 5.08177358e-08,
          7.49190150e-08, -1.83900219e-08, 1.45203757e-07,
          -1.36303173e-08, -2.87170707e-07, -3.35445485e-08,
          2.19248104e-08, -4.81388795e-09, 9.30051680e-09,
          -4.94880972e-08, 4.49015225e-08 ]
   decision_functions:
      -
         sv_count: 1
         rho: -2.7856019528687193e-01
         alpha: [ 1. ]
         index: [ 0 ]
      -
         sv_count: 1
         rho: -8.2422563448054476e-01
         alpha: [ 1. ]
         index: [ 1 ]
      -
         sv_count: 1
         rho: 1.2421195689436546e+00
         alpha: [ 1. ]
         index: [ 2 ]
      -
         sv_count: 1
         rho: 2.0557612153187263e-01
         alpha: [ 1. ]
         index: [ 3 ]
      -
         sv_count: 1
         rho: -2.7120296034052371e-01
         alpha: [ 1. ]
         index: [ 4 ]
      -
         sv_count: 1
         rho: -1.3085161131615854e+00
         alpha: [ 1. ]
         index: [ 5 ]
      -
         sv_count: 1
         rho: 3.4156967055252013e-01
         alpha: [ 1. ]
         index: [ 6 ]
      -
         sv_count: 1
         rho: 4.9289857567036433e-01
         alpha: [ 1. ]
         index: [ 7 ]
      -
         sv_count: 1
         rho: -4.7908686297656033e-01
         alpha: [ 1. ]
         index: [ 8 ]
      -
         sv_count: 1
         rho: -1.3232129518818012e-01
         alpha: [ 1. ]
         index: [ 9 ]
      -
         sv_count: 1
         rho: -9.6018471846584441e-01
         alpha: [ 1. ]
         index: [ 10 ]
      -
         sv_count: 1
         rho: 8.2111179676980495e-01
         alpha: [ 1. ]
         index: [ 11 ]
      -
         sv_count: 1
         rho: -2.5517802783992831e+00
         alpha: [ 1. ]
         index: [ 12 ]
      -
         sv_count: 1
         rho: -2.2193886713126041e+00
         alpha: [ 1. ]
         index: [ 13 ]
      -
         sv_count: 1
         rho: -4.0671670044051345e-01
         alpha: [ 1. ]
         index: [ 14 ]
      -
         sv_count: 1
         rho: 1.2870866017674294e+00
         alpha: [ 1. ]
         index: [ 15 ]
      -
         sv_count: 1
         rho: -9.9000109417653093e-01
         alpha: [ 1. ]
         index: [ 16 ]
      -
         sv_count: 1
         rho: 5.2975423911503131e-02
         alpha: [ 1. ]
         index: [ 17 ]
      -
         sv_count: 1
         rho: -2.6263657039432343e-03
         alpha: [ 1. ]
         index: [ 18 ]
      -
         sv_count: 1
         rho: -2.8000450726717413e-01
         alpha: [ 1. ]
         index: [ 19 ]
      -
         sv_count: 1
         rho: 1.2276135678611158e+00
         alpha: [ 1. ]
         index: [ 20 ]
      -
         sv_count: 1
         rho: -1.7671234370258246e+00
         alpha: [ 1. ]
         index: [ 21 ]
      -
         sv_count: 1
         rho: 1.2502346361330563e-01
         alpha: [ 1. ]
         index: [ 22 ]
      -
         sv_count: 1
         rho: -1.2871219353838517e+00
         alpha: [ 1. ]
         index: [ 23 ]
      -
         sv_count: 1
         rho: -2.1822274111095852e-01
         alpha: [ 1. ]
         index: [ 24 ]
      -
         sv_count: 1
         rho: -6.8601016127994310e-02
         alpha: [ 1. ]
         index: [ 25 ]
      -
         sv_count: 1
         rho: -1.0442226503268641e+00
         alpha: [ 1. ]
         index: [ 26 ]
      -
         sv_count: 1
         rho: 5.0005846786976460e-01
         alpha: [ 1. ]
         index: [ 27 ]
      -
         sv_count: 1
         rho: -2.8656093007789685e-01
         alpha: [ 1. ]
         index: [ 28 ]
      -
         sv_count: 1
         rho: 1.1602410337615712e+00
         alpha: [ 1. ]
         index: [ 29 ]
      -
         sv_count: 1
         rho: -1.5694387101339669e+00
         alpha: [ 1. ]
         index: [ 30 ]
      -
         sv_count: 1
         rho: 8.7219346641047790e-01
         alpha: [ 1. ]
         index: [ 31 ]
      -
         sv_count: 1
         rho: 1.0065976635303788e+00
         alpha: [ 1. ]
         index: [ 32 ]
      -
         sv_count: 1
         rho: 9.2900277052522418e-01
         alpha: [ 1. ]
         index: [ 33 ]
      -
         sv_count: 1
         rho: -1.0137679508275981e+00
         alpha: [ 1. ]
         index: [ 34 ]
      -
         sv_count: 1
         rho: 1.4501453360122402e-01
         alpha: [ 1. ]
         index: [ 35 ]
      -
         sv_count: 1
         rho: -9.5234312883088612e-01
         alpha: [ 1. ]
         index: [ 36 ]
      -
         sv_count: 1
         rho: -1.8733541209419182e+00
         alpha: [ 1. ]
         index: [ 37 ]
      -
         sv_count: 1
         rho: -6.4045444618423375e-01
         alpha: [ 1. ]
         index: [ 38 ]
      -
         sv_count: 1
         rho: 1.1147518505648386e-01
         alpha: [ 1. ]
         index: [ 39 ]
      -
         sv_count: 1
         rho: 6.1312191691830539e-02
         alpha: [ 1. ]
         index: [ 40 ]
      -
         sv_count: 1
         rho: -5.7198520510941897e-01
         alpha: [ 1. ]
         index: [ 41 ]
      -
         sv_count: 1
         rho: 1.8562094111069308e-01
         alpha: [ 1. ]
         index: [ 42 ]
      -
         sv_count: 1
         rho: 3.3925468228249800e-01
         alpha: [ 1. ]
         index: [ 43 ]
      -
         sv_count: 1
         rho: 2.7723978604288968e-01
         alpha: [ 1. ]
         index: [ 44 ]
      -
         sv_count: 1
         rho: -2.7529895951435708e+00
         alpha: [ 1. ]
         index: [ 45 ]
      -
         sv_count: 1
         rho: 1.3024939502756276e+00
         alpha: [ 1. ]
         index: [ 46 ]
      -
         sv_count: 1
         rho: -4.9299119220179916e-01
         alpha: [ 1. ]
         index: [ 47 ]
      -
         sv_count: 1
         rho: 1.8668684201592534e-01
         alpha: [ 1. ]
         index: [ 48 ]
      -
         sv_count: 1
         rho: 4.1134023093560546e-01
         alpha: [ 1. ]
         index: [ 49 ]
      -
         sv_count: 1
         rho: 3.4378909063990443e-01
         alpha: [ 1. ]
         index: [ 50 ]
      -
         sv_count: 1
         rho: 2.1510030841658220e-01
         alpha: [ 1. ]
         index: [ 51 ]
      -
         sv_count: 1
         rho: -1.1552472500431561e+00
         alpha: [ 1. ]
         index: [ 52 ]
      -
         sv_count: 1
         rho: 7.0504229673004737e-01
         alpha: [ 1. ]
         index: [ 53 ]
      -
         sv_count: 1
         rho: 1.0102438905457889e-01
         alpha: [ 1. ]
         index: [ 54 ]
      -
         sv_count: 1
         rho: -1.0122251181298612e+00
         alpha: [ 1. ]
         index: [ 55 ]
      -
         sv_count: 1
         rho: 6.1521007409858097e-01
         alpha: [ 1. ]
         index: [ 56 ]
      -
         sv_count: 1
         rho: 6.9492324294532404e-01
         alpha: [ 1. ]
         index: [ 57 ]
      -
         sv_count: 1
         rho: -1.1822568463032107e-03
         alpha: [ 1. ]
         index: [ 58 ]
      -
         sv_count: 1
         rho: -9.6497193876519963e-02
         alpha: [ 1. ]
         index: [ 59 ]
      -
         sv_count: 1
         rho: 3.5959645793302464e-01
         alpha: [ 1. ]
         index: [ 60 ]
      -
         sv_count: 1
         rho: 1.0226832877817810e-02
         alpha: [ 1. ]
         index: [ 61 ]
      -
         sv_count: 1
         rho: -5.2598339668730620e-02
         alpha: [ 1. ]
         index: [ 62 ]
      -
         sv_count: 1
         rho: 4.2598736492535032e-02
         alpha: [ 1. ]
         index: [ 63 ]
      -
         sv_count: 1
         rho: 1.0370889273574602e+00
         alpha: [ 1. ]
         index: [ 64 ]
      -
         sv_count: 1
         rho: 4.3104632435173285e-01
         alpha: [ 1. ]
         index: [ 65 ]
      -
         sv_count: 1
         rho: -2.5567431234014548e-01
         alpha: [ 1. ]
         index: [ 66 ]
      -
         sv_count: 1
         rho: -1.9591519651196174e-01
         alpha: [ 1. ]
         index: [ 67 ]
      -
         sv_count: 1
         rho: -1.0128191982450765e+00
         alpha: [ 1. ]
         index: [ 68 ]
      -
         sv_count: 1
         rho: 4.4975227109081972e-03
         alpha: [ 1. ]
         index: [ 69 ]
      -
         sv_count: 1
         rho: -7.0140870861291982e-01
         alpha: [ 1. ]
         index: [ 70 ]
      -
         sv_count: 1
         rho: 1.6718863558606459e-01
         alpha: [ 1. ]
         index: [ 71 ]
      -
         sv_count: 1
         rho: -1.0110213737673568e+00
         alpha: [ 1. ]
         index: [ 72 ]
      -
         sv_count: 1
         rho: 5.4971505044439961e-01
         alpha: [ 1. ]
         index: [ 73 ]
      -
         sv_count: 1
         rho: 2.1401011005312481e-01
         alpha: [ 1. ]
         index: [ 74 ]
      -
         sv_count: 1
         rho: 1.0012667981623270e-01
         alpha: [ 1. ]
         index: [ 75 ]
      -
         sv_count: 1
         rho: -5.1208190818462684e-01
         alpha: [ 1. ]
         index: [ 76 ]
      -
         sv_count: 1
         rho: 7.2032630577457146e-01
         alpha: [ 1. ]
         index: [ 77 ]
      -
         sv_count: 1
         rho: 1.0807099168027279e+00
         alpha: [ 1. ]
         index: [ 78 ]
      -
         sv_count: 1
         rho: -2.8920287223783575e-01
         alpha: [ 1. ]
         index: [ 79 ]
      -
         sv_count: 1
         rho: -4.4890988732722725e+00
         alpha: [ 1. ]
         index: [ 80 ]
      -
         sv_count: 1
         rho: -3.1223638662861480e-01
         alpha: [ 1. ]
         index: [ 81 ]
      -
         sv_count: 1
         rho: -9.3344772528101583e-01
         alpha: [ 1. ]
         index: [ 82 ]
      -
         sv_count: 1
         rho: 4.3274569268494917e-01
         alpha: [ 1. ]
         index: [ 83 ]
      -
         sv_count: 1
         rho: 1.1416267611092970e+00
         alpha: [ 1. ]
         index: [ 84 ]
      -
         sv_count: 1
         rho: -8.9515823034838471e-01
         alpha: [ 1. ]
         index: [ 85 ]
      -
         sv_count: 1
         rho: -2.9567859152379250e-01
         alpha: [ 1. ]
         index: [ 86 ]
      -
         sv_count: 1
         rho: -1.5797992183851630e+00
         alpha: [ 1. ]
         index: [ 87 ]
      -
         sv_count: 1
         rho: 1.1100686393640502e+00
         alpha: [ 1. ]
         index: [ 88 ]
      -
         sv_count: 1
         rho: -3.1991871132869532e-01
         alpha: [ 1. ]
         index: [ 89 ]
      -
         sv_count: 1
         rho: -1.9760536006700946e+00
         alpha: [ 1. ]
         index: [ 90 ]
      -
         sv_count: 1
         rho: 3.5902294198667410e-02
         alpha: [ 1. ]
         index: [ 91 ]
      -
         sv_count: 1
         rho: -9.4181310261405660e-01
         alpha: [ 1. ]
         index: [ 92 ]
      -
         sv_count: 1
         rho: 1.1707371593336582e+00
         alpha: [ 1. ]
         index: [ 93 ]
      -
         sv_count: 1
         rho: 7.9474412419151541e-02
         alpha: [ 1. ]
         index: [ 94 ]
      -
         sv_count: 1
         rho: -6.4871060150480042e-01
         alpha: [ 1. ]
         index: [ 95 ]
      -
         sv_count: 1
         rho: 2.6085494704054093e+00
         alpha: [ 1. ]
         index: [ 96 ]
      -
         sv_count: 1
         rho: 9.9397472447859314e-01
         alpha: [ 1. ]
         index: [ 97 ]
      -
         sv_count: 1
         rho: 9.5524378509524155e-01
         alpha: [ 1. ]
         index: [ 98 ]
      -
         sv_count: 1
         rho: 7.7219412639054907e-01
         alpha: [ 1. ]
         index: [ 99 ]
      -
         sv_count: 1
         rho: -4.8513710938902105e-01
         alpha: [ 1. ]
         index: [ 100 ]
      -
         sv_count: 1
         rho: -2.7410986410051152e-01
         alpha: [ 1. ]
         index: [ 101 ]
      -
         sv_count: 1
         rho: 2.2342389689041556e-01
         alpha: [ 1. ]
         index: [ 102 ]
      -
         sv_count: 1
         rho: 6.4931524594072976e-01
         alpha: [ 1. ]
         index: [ 103 ]
      -
         sv_count: 1
         rho: 2.5342521701115728e+00
         alpha: [ 1. ]
         index: [ 104 ]
      -
         sv_count: 1
         rho: -3.1364196185443007e+00
         alpha: [ 1. ]
         index: [ 105 ]
      -
         sv_count: 1
         rho: -9.2551720531280102e-01
         alpha: [ 1. ]
         index: [ 106 ]
      -
         sv_count: 1
         rho: 8.1081405701822051e-01
         alpha: [ 1. ]
         index: [ 107 ]
      -
         sv_count: 1
         rho: 1.2110095012020958e+00
         alpha: [ 1. ]
         index: [ 108 ]
      -
         sv_count: 1
         rho: -1.6528971908077620e-02
         alpha: [ 1. ]
         index: [ 109 ]
      -
         sv_count: 1
         rho: 1.2845958062325495e+00
         alpha: [ 1. ]
         index: [ 110 ]
      -
         sv_count: 1
         rho: -7.5439501402298568e+00
         alpha: [ 1. ]
         index: [ 111 ]
      -
         sv_count: 1
         rho: -4.1942275895803088e-01
         alpha: [ 1. ]
         index: [ 112 ]
      -
         sv_count: 1
         rho: -2.7609126433542547e-01
         alpha: [ 1. ]
         index: [ 113 ]
      -
         sv_count: 1
         rho: 1.0925655372893156e-01
         alpha: [ 1. ]
         index: [ 114 ]
      -
         sv_count: 1
         rho: -1.4668274303567717e+00
         alpha: [ 1. ]
         index: [ 115 ]
      -
         sv_count: 1
         rho: -1.8078389740489065e-01
         alpha: [ 1. ]
         index: [ 116 ]
      -
         sv_count: 1
         rho: 9.5411998931018416e-01
         alpha: [ 1. ]
         index: [ 117 ]
      -
         sv_count: 1
         rho: -2.2037700600859453e-01
         alpha: [ 1. ]
         index: [ 118 ]
      -
         sv_count: 1
         rho: 1.3355800340609350e+00
         alpha: [ 1. ]
         index: [ 119 ]
      -
         sv_count: 1
         rho: 1.2373622428210975e+00
         alpha: [ 1. ]
         index: [ 120 ]
      -
         sv_count: 1
         rho: -2.2707635732517695e-01
         alpha: [ 1. ]
         index: [ 121 ]
      -
         sv_count: 1
         rho: -7.4410521099904514e-01
         alpha: [ 1. ]
         index: [ 122 ]
      -
         sv_count: 1
         rho: 1.2579455909396566e+00
         alpha: [ 1. ]
         index: [ 123 ]
      -
         sv_count: 1
         rho: -2.2529015387572229e-01
         alpha: [ 1. ]
         index: [ 124 ]
      -
         sv_count: 1
         rho: 1.7739002487476603e+00
         alpha: [ 1. ]
         index: [ 125 ]
      -
         sv_count: 1
         rho: 2.7226429594252505e-01
         alpha: [ 1. ]
         index: [ 126 ]
      -
         sv_count: 1
         rho: -9.3952440427718131e-01
         alpha: [ 1. ]
         index: [ 127 ]
      -
         sv_count: 1
         rho: 7.4038307656368638e-02
         alpha: [ 1. ]
         index: [ 128 ]
      -
         sv_count: 1
         rho: 3.8921970698968827e-01
         alpha: [ 1. ]
         index: [ 129 ]
      -
         sv_count: 1
         rho: -1.3143129126909997e-01
         alpha: [ 1. ]
         index: [ 130 ]
      -
         sv_count: 1
         rho: 2.3429223620806843e+00
         alpha: [ 1. ]
         index: [ 131 ]
      -
         sv_count: 1
         rho: 5.4914253659108125e-02
         alpha: [ 1. ]
         index: [ 132 ]
      -
         sv_count: 1
         rho: 8.4736937828467551e-01
         alpha: [ 1. ]
         index: [ 133 ]
      -
         sv_count: 1
         rho: 2.6321223333327898e-01
         alpha: [ 1. ]
         index: [ 134 ]
      -
         sv_count: 1
         rho: 1.0570410160417645e+00
         alpha: [ 1. ]
         index: [ 135 ]
      -
         sv_count: 1
         rho: 9.2024242692049396e-01
         alpha: [ 1. ]
         index: [ 136 ]
      -
         sv_count: 1
         rho: 1.6655774594386275e+00
         alpha: [ 1. ]
         index: [ 137 ]
      -
         sv_count: 1
         rho: 4.6301097187722884e-01
         alpha: [ 1. ]
         index: [ 138 ]
      -
         sv_count: 1
         rho: -4.1313903041804667e-01
         alpha: [ 1. ]
         index: [ 139 ]
      -
         sv_count: 1
         rho: -2.1828796424901148e-01
         alpha: [ 1. ]
         index: [ 140 ]
      -
         sv_count: 1
         rho: 1.0227552431467908e+00
         alpha: [ 1. ]
         index: [ 141 ]
      -
         sv_count: 1
         rho: 1.3708294534339089e+00
         alpha: [ 1. ]
         index: [ 142 ]
      -
         sv_count: 1
         rho: -3.6388300898291615e-01
         alpha: [ 1. ]
         index: [ 143 ]
      -
         sv_count: 1
         rho: -1.1043238614403195e+00
         alpha: [ 1. ]
         index: [ 144 ]
      -
         sv_count: 1
         rho: -3.3471187197470353e-01
         alpha: [ 1. ]
         index: [ 145 ]
      -
         sv_count: 1
         rho: 6.3624027174341491e-01
         alpha: [ 1. ]
         index: [ 146 ]
      -
         sv_count: 1
         rho: -7.6948694131786999e-01
         alpha: [ 1. ]
         index: [ 147 ]
      -
         sv_count: 1
         rho: -9.3174216534048693e-01
         alpha: [ 1. ]
         index: [ 148 ]
      -
         sv_count: 1
         rho: 2.8327600890949217e-01
         alpha: [ 1. ]
         index: [ 149 ]
      -
         sv_count: 1
         rho: 5.1575662193046079e-01
         alpha: [ 1. ]
         index: [ 150 ]
      -
         sv_count: 1
         rho: 5.9159563320340572e-02
         alpha: [ 1. ]
         index: [ 151 ]
      -
         sv_count: 1
         rho: 2.0985051333729926e-01
         alpha: [ 1. ]
         index: [ 152 ]
      -
         sv_count: 1
         rho: -1.5471831219603574e-01
         alpha: [ 1. ]
         index: [ 153 ]
      -
         sv_count: 1
         rho: -1.1193974690000556e-01
         alpha: [ 1. ]
         index: [ 154 ]
      -
         sv_count: 1
         rho: 3.0315464328719827e-01
         alpha: [ 1. ]
         index: [ 155 ]
      -
         sv_count: 1
         rho: -1.2458183881692195e+00
         alpha: [ 1. ]
         index: [ 156 ]
      -
         sv_count: 1
         rho: -1.7908203974069936e-01
         alpha: [ 1. ]
         index: [ 157 ]
      -
         sv_count: 1
         rho: 1.6817696157110100e+00
         alpha: [ 1. ]
         index: [ 158 ]
      -
         sv_count: 1
         rho: -3.4677252782485998e-02
         alpha: [ 1. ]
         index: [ 159 ]
      -
         sv_count: 1
         rho: 1.7386166104489560e+00
         alpha: [ 1. ]
         index: [ 160 ]
      -
         sv_count: 1
         rho: -9.0598292436336403e-01
         alpha: [ 1. ]
         index: [ 161 ]
      -
         sv_count: 1
         rho: 2.1134364758488040e+00
         alpha: [ 1. ]
         index: [ 162 ]
      -
         sv_count: 1
         rho: 5.4147665113614407e-01
         alpha: [ 1. ]
         index: [ 163 ]
      -
         sv_count: 1
         rho: 2.2471809081797014e+00
         alpha: [ 1. ]
         index: [ 164 ]
      -
         sv_count: 1
         rho: 8.2744584394165555e-01
         alpha: [ 1. ]
         index: [ 165 ]
      -
         sv_count: 1
         rho: 1.1401961163430110e+00
         alpha: [ 1. ]
         index: [ 166 ]
      -
         sv_count: 1
         rho: 1.7260099575114740e-01
         alpha: [ 1. ]
         index: [ 167 ]
      -
         sv_count: 1
         rho: -4.3579318944701495e-01
         alpha: [ 1. ]
         index: [ 168 ]
      -
         sv_count: 1
         rho: 5.6295046439108953e-01
         alpha: [ 1. ]
         index: [ 169 ]
      -
         sv_count: 1
         rho: 1.1342730992728353e-01
         alpha: [ 1. ]
         index: [ 170 ]
